tree
version=v4
num_class=1
num_tree_per_iteration=1
label_index=0
max_feature_idx=81
objective=regression
feature_names=Column_0 Column_1 Column_2 Column_3 Column_4 Column_5 Column_6 Column_7 Column_8 Column_9 Column_10 Column_11 Column_12 Column_13 Column_14 Column_15 Column_16 Column_17 Column_18 Column_19 Column_20 Column_21 Column_22 Column_23 Column_24 Column_25 Column_26 Column_27 Column_28 Column_29 Column_30 Column_31 Column_32 Column_33 Column_34 Column_35 Column_36 Column_37 Column_38 Column_39 Column_40 Column_41 Column_42 Column_43 Column_44 Column_45 Column_46 Column_47 Column_48 Column_49 Column_50 Column_51 Column_52 Column_53 Column_54 Column_55 Column_56 Column_57 Column_58 Column_59 Column_60 Column_61 Column_62 Column_63 Column_64 Column_65 Column_66 Column_67 Column_68 Column_69 Column_70 Column_71 Column_72 Column_73 Column_74 Column_75 Column_76 Column_77 Column_78 Column_79 Column_80 Column_81
feature_infos=[-3.6204618559616346:1.9680175291462714] [-3.5390812003044458:2.0600980219515028] [-3.5143068644959436:4.6230259372265614] [-1.3677446219820573:2.2320309818817177] [-1.6005959880467699:15.187008810595202] [-0.098047170930439048:31.121809171221226] [-3.1836293498418615:1.9022694999701255] [-3.1653932553159985:1.5557169112315159] [-3.5563340390218432:4.6028082727116963] [-1.4409053258409783:2.4164972943641549] [-1.6436332769334336:5.1078641995597751] [-0.081693913556662764:41.10111151271316] [-3.2145168367975963:1.8249664449918923] [-3.4301553752237548:1.4765354298096336] [-3.5498179994195582:4.6256495832635514] [-1.3285363322030674:2.3044951366914912] [-1.4361353765679665:5.5194491924041538] [-0.10037993037384382:25.54739947546032] [-3.2096637887978012:1.8472735129018321] [-3.41593675318755:1.4430602470068556] [-3.6818493678441859:4.6165946496105654] [-1.2742280178128258:2.2435202968955807] [-1.3666840359322008:4.9270335957238549] [-0.091939766080674029:38.70665461464106] [-3.3469420283253117:1.8885451704991343] [-3.5264200781520536:1.4001388128796064] [-3.7057297682282204:4.6434627419396364] [-1.3118898502427292:2.1544332742313115] [-1.3562590411954567:5.595472281511908] [-0.061919833789408449:63.086700971013052] [-3.3236003865579726:1.8279197026778047] [-3.5057372658381456:1.3600673694239025] [-3.7520815245767576:4.5224010783372952] [-1.3438455176538124:2.0201208708421374] [-1.3645752702325338:5.6978260541775736] [-0.088234652808364233:41.54181939110336] [-3.7903230037890538:1.823985858870117] [-3.4016346133758955:1.3653658083073543] [-3.5337230468167915:4.5601980112847711] [-1.1449992666533992:2.1917433385965182] [-1.2045326085761439:13.988768222018729] [-0.10138504493167359:40.319254095693317] [-3.3783584279062757:1.6806974236867085] [-3.4806535015566609:1.3593045286309204] [-3.5185091906315744:4.72384248307175] [-1.2714893390739921:1.8932151197118334] [-1.2090516452750502:6.1612630264512607] [-0.099101289786778554:30.990950299184679] [-3.462429045468582:1.5856908203763136] [-3.5720556142981827:1.3440654956131262] [-3.4426465440666383:4.7233552350370145] [-1.1942701390482267:1.8867288700829103] [-1.1350264976231379:5.798694650454074] [-0.1120634017017208:34.858735754730723] [-3.3342406043347665:1.617627050237368] [-3.4625493044796953:1.3537421323019094] [-3.2314377732323596:4.7848965545148028] [-1.1188848287515492:1.8945390605503709] [-1.076044987701146:5.1221656575108483] [-0.11786858205890899:28.99831767646015] [-3.4156993347884455:1.6394364367481551] [-3.5043964204189826:1.342041283519307] [-3.2649568849772499:4.817209834549816] [-1.090786407251487:1.868683458121932] [-1.0559309831234818:4.802767156094184] [-0.098056658480345463:39.869452082893041] [-3.4523786074595875:1.6025662003362591] [-3.4712942923938961:1.3576478748511185] [-3.4043466919057943:4.8121690515005735] [-1.0535105796811606:1.8732109646057264] [-1.0316151857773372:4.5719333796103747] [-0.11688855994116251:30.966676180261189] [-4.0033567801046486:2.038315349785504] [-3.4039387251097262:1.6786079037094754] [-3.7035497468120377:1.8138285962706637] [-3.6429986256914471:1.7628225592032496] [-3.4300505037049485:1.8840280136820973] [-3.3594689698213696:3.6796477042834321] none none [-1.4143299581449627:1.4140076332812066] [-1.4144119650897564:1.414041027324189]
tree_sizes=2682 2802 2794 2799 2792 2798 2799 2800 2810 2805 2802 2816 2820 2820 2825 2807 2817 2814 2815 2814 2823 2826 2822 2828 2815 2827 2836 2834 2841 2834 2842 2831 2845 2846 2852 2849 2838 2833 2836 2846 2851 2842 2853 2852 2854 2860 2861 2857 2849 2858 2836 2849 2855 2846 2859 2856 2853 2845 2862 2853 2863 2846 2852 2838 2858 2862 2876 2876 2851 2852 2856 2858 2828 2863 2844 2864 2859 2867 2876 2863 2866 2876 2893 2843 2864 2874 2837 2859 2837 2859 2872 2853 2864 2846 2821 2860 2856 2816 2882 2879 2835 2867 2862 2869 2861 2848 2872 2883 2855 2858 2872 2839 2878 2839 2830 2846 2875 2848 2859 2861 2857 2827 2850 2850 2831 2810 2873 2822 2848 2848 2846 2835 2819 2828 2867 2852 2858 2834 2848 2815 2849 2808 2882 2846 2815 2811 2835 2861 2842 2855 2807 2850 2841 2855 2844 2811 2824 2829 2805 2859 2804 2822 2881 2826 2815 2829 2839 2845 2834 2864 2862 2822 2849 2837 2861 2819 2847 2837 2837 2831 2840 2870 2856 2847 2855 2845 2848 2872 2852 2857 2835 2824 2813 2864 2842 2840 2878 2839 2856 2840 2831 2863 2824 2839 2837 2812 2851 2842 2861 2870 2856 2840 2864 2885 2834 2829 2855 2835 2851 2823 2844 2835 2844 2831 2810 2854 2817 2827 2836 2849 2852 2841 2845 2871 2857 2840 2827 2842 2822 2852 2821 2830 2849 2842 2846 2860 2838 2866 2811 2837 2881 2820 2825 2845 2834 2875 2841 2849 2847 2852 2813 2833 2794 2859

Tree=0
num_leaves=31
num_cat=0
split_feature=0 0 0 0 0 72 72 0 64 0 58 75 70 0 0 66 0 66 0 63 52 76 67 69 81 80 71 69 81 76
split_gain=212828 40403.2 36640.7 6792.16 5442.35 5221.88 4658.94 1730.1 1337.22 1066.41 991.114 874.561 793.104 792.697 777.066 621.955 529.943 512.315 475.161 468.287 451.261 457.229 417.566 372.063 324.674 323.839 297.021 292.014 286.414 271.258
threshold=-0.20657905166977594 -1.3757169983450699 0.63520026993643575 -0.8671419915413171 -1.960285971682717 1.0143031243803939 0.22709372610021469 -2.7377627062217873 0.6336105964434382 -0.46378939993834051 0.3717995838638179 0.75163712980978736 0.42965502200695821 1.3483744174083656 0.12077957339930649 -0.33698096812257866 0.89825630793837719 -0.5915465339828011 -1.1185066500765053 1.4987497249502548 1.0000000180025095e-35 0.28561473497082168 0.72802389612869589 1.2634773095459588 -0.49578106917840586 -1.0113514871113234 -0.035212526464654823 1.5683441370758426 -0.54105035875215257 -1.3779108554585984
decision_type=2 2 2 2 2 2 2 2 2 2 2 2 2 2 2 2 2 2 2 2 2 2 2 2 2 2 2 2 2 2
left_child=1 4 6 12 7 16 14 -1 17 19 -9 20 18 -7 23 -14 -4 -6 -3 24 -8 -22 27 25 -5 -2 -13 -11 -27 -10
right_child=2 3 5 9 8 13 11 10 29 22 -12 26 15 -15 -16 -17 -18 -19 -20 -21 21 -23 -24 -25 -26 28 -28 -29 -30 -31
leaf_value=26.143133854670609 27.424264752767673 26.961916897012106 27.652300742369821 27.370782496202139 26.799361222175591 27.815868289112839 27.543704722141044 26.622753361251547 26.550167099931755 27.263508522967427 26.397588946124323 27.666058362961376 26.845002181995063 27.909985605049282 27.437153921711595 27.112551731840611 27.732056278591106 27.036582489836363 27.070145723357317 27.04625307027958 27.349870727246799 27.499489806788581 27.465043358671814 27.247874431616147 27.165003746329955 27.435615825323413 27.472652050177576 27.146941232966579 27.316482801554592 26.706886643089998
leaf_weight=37 141 186 521 20 254 536 450 103 65 365 93 145 132 384 350 26 347 25 223 85 68 205 23 87 461 60 23 63 317 48
leaf_count=37 141 186 521 20 254 536 450 103 65 365 93 145 132 384 350 26 347 25 223 85 68 205 23 87 461 60 23 63 317 48
internal_value=27.3756 26.9885 27.6108 27.1228 26.6481 27.7722 27.4546 26.4567 26.7618 27.2001 26.5159 27.5368 26.9842 27.8552 27.3779 26.889 27.6842 26.8206 27.0209 27.1544 27.5129 27.4622 27.2575 27.3436 27.1736 27.3596 27.6396 27.2464 27.3354 26.6167
internal_weight=5843 2209 3634 1584 625 1788 1846 233 392 1017 196 891 567 920 955 158 868 279 409 566 723 273 451 605 481 518 168 428 377 113
internal_count=5843 2209 3634 1584 625 1788 1846 233 392 1017 196 891 567 920 955 158 868 279 409 566 723 273 451 605 481 518 168 428 377 113
is_linear=0
shrinkage=1


Tree=1
num_leaves=31
num_cat=0
split_feature=0 0 72 0 0 0 0 0 64 46 67 72 61 70 0 72 60 0 0 66 64 81 0 56 65 52 67 68 69 75
split_gain=192077 36463.9 33114.8 6129.93 5863.65 4913.68 3317.87 1711.49 1037.5 1024.27 982.962 848.631 764.721 715.776 640.703 638.147 562.356 462.968 428.832 428.81 399.45 350.953 302.523 278.711 265.38 250.25 240.011 218.399 217.996 211.769
threshold=-0.20657905166977594 -1.3757169983450699 0.60469823421834967 -0.8671419915413171 1.0911640691398004 -1.8959833846155756 0.24938474753358883 -2.7377627062217873 0.6336105964434382 0.68169901397499999 0.38857444673052027 0.79670052648180756 0.8408755664075066 0.42965502200695821 -0.46378939993834051 1.2127054930526342 -0.28054301494122685 0.44229250873501241 -1.1185066500765053 -0.5915465339828011 -0.29016753339171225 0.96537536770004995 0.57089768286929454 0.20065678206830526 1.0000000180025095e-35 -0.13589654052173419 0.72802389612869589 -0.59214636306136093 1.2634773095459588 1.0791223223775039
decision_type=2 2 2 2 2 2 2 2 2 2 2 2 2 2 2 2 2 2 2 2 2 2 2 2 2 2 2 2 2 2
left_child=1 5 6 13 11 7 12 -1 19 23 14 22 21 18 20 -6 -15 -8 -3 -7 -5 25 -4 -9 29 -2 -12 -22 -16 -13
right_child=2 3 4 10 15 8 17 9 -10 -11 26 24 -14 16 28 -17 -18 -19 -20 -21 27 -23 -24 -25 -26 -27 -28 -29 -30 -31
leaf_value=-1.170805345999228 0.02866650968253269 -0.39296143720707588 0.17329158814457377 -0.17807417274471299 0.4172814400603132 -0.53979856664851567 0.10120467721113091 -0.5525979973021008 -0.70766802329828249 -0.93977424377618834 -0.082292571624225763 0.31814629425337965 0.1346347163361247 -0.50113997494732898 -0.11355564724583136 0.50417354719354479 -0.23367105366095253 0.18128916885745661 -0.29014404990747905 -0.32202913188934329 -0.17624165065310621 -0.086068987186323082 0.26264788265367156 -0.75017101784714135 0.17321221014628044 -0.030838087020027972 0.080430424213409429 -0.28887621699217358 -0.21340870165090631 0.38811734793137531
leaf_weight=37 347 186 123 251 410 236 366 21 101 86 141 409 93 135 263 436 23 356 223 25 54 149 412 119 26 360 27 212 69 147
leaf_count=37 347 186 123 251 410 236 366 21 101 86 141 409 93 135 263 436 23 356 223 25 54 149 412 119 26 360 27 212 69 147
internal_value=3.29621e-11 -0.367692 0.223509 -0.240088 0.362766 -0.691093 0.0599175 -0.855571 -0.571596 -0.803962 -0.166644 0.28756 -0.00153602 -0.371819 -0.188511 0.462063 -0.462205 0.140692 -0.336902 -0.518939 -0.223318 -0.0163303 0.242104 -0.720535 0.329345 -0.00163286 -0.0561407 -0.266011 -0.134308 0.336646
internal_weight=5843 2209 3634 1584 1963 625 1671 263 362 226 1017 1117 949 567 849 846 158 722 409 261 517 856 535 140 582 707 168 266 332 556
internal_count=5843 2209 3634 1584 1963 625 1671 263 362 226 1017 1117 949 567 849 846 158 722 409 261 517 856 535 140 582 707 168 266 332 556
is_linear=0
shrinkage=0.05


Tree=2
num_leaves=31
num_cat=0
split_feature=0 0 0 0 0 72 72 0 64 67 58 75 72 0 70 0 60 6 66 52 76 0 63 69 80 71 18 67 80 15
split_gain=173349 32908.6 29935.4 5532.26 4439.69 4272.04 3826.73 1407.84 1089.42 887.123 830.986 712.481 658.168 650.948 645.988 578.234 510.585 451.704 416.918 394.046 389.248 387.021 366.984 327.422 283.765 256.981 244.112 216.61 212.574 206.409
threshold=-0.20657905166977594 -1.3757169983450699 0.63520026993643575 -0.8671419915413171 -1.960285971682717 1.0143031243803939 0.22709372610021469 -2.7377627062217873 0.6336105964434382 0.38857444673052027 0.3717995838638179 0.75163712980978736 1.2127054930526342 0.12077957339930649 0.42965502200695821 -0.46378939993834051 -0.33522597400832949 0.93029771978383502 -0.5915465339828011 1.0000000180025095e-35 0.19696175310086683 -1.1185066500765053 1.4987497249502548 1.2634773095459588 -1.275223177076777 1.0000000180025095e-35 -1.2306053821746969 0.72802389612869589 -1.1078291773310942 1.8503662030796717
decision_type=2 2 2 2 2 2 2 2 2 2 2 2 2 2 2 2 2 2 2 2 2 2 2 2 2 2 2 2 2 2
left_child=1 4 6 14 7 17 13 -1 18 15 -9 19 -7 23 21 22 -16 -4 -6 -8 -21 -3 -5 24 -2 -13 -10 -11 -17 -28
right_child=2 3 5 9 8 12 11 10 26 27 -12 25 -14 -15 16 28 -18 -19 -20 20 -22 -23 -24 -25 -26 -27 29 -29 -30 -31
leaf_value=-1.1122650829521386 0.07313614938503657 -0.3733133621473787 0.2467520176142943 -0.19372988513307132 -0.51992621823089336 0.39037330723018898 0.15282777604626285 -0.67816100259429046 -0.74566517943766586 -0.078177943518583454 -0.88433547276322566 0.26238866054567778 0.47496180304130259 0.055837707928248818 -0.48080850330682906 -0.044920151343657858 -0.24542180023023061 0.3194554855321583 -0.30592767524719244 -0.05423459984520649 0.10391247433371249 -0.27563685123963205 -0.30848050280866857 -0.11958667933940888 -0.030340057421814309 0.079078189249743122 -0.68897356070004978 0.076408903576709611 -0.14695483416485078 -0.47531914472579956
leaf_weight=37 78 186 488 434 254 454 450 103 67 141 93 146 466 350 130 63 28 380 25 47 226 223 83 87 440 22 26 27 269 20
leaf_count=37 78 186 488 434 254 454 450 103 67 141 93 146 466 350 130 63 28 380 25 47 226 223 83 87 440 22 26 27 269 20
internal_value=2.41474e-09 -0.349307 0.212334 -0.228083 -0.656538 0.358149 0.0710998 -0.829389 -0.553798 -0.158312 -0.775989 0.14563 0.433219 0.00156456 -0.353228 -0.179085 -0.439094 0.278581 -0.500751 0.124077 0.0766857 -0.320057 -0.212152 -0.0298331 -0.0147587 0.238384 -0.684772 -0.0533336 -0.127593 -0.59608
internal_weight=5843 2209 3634 1584 625 1788 1846 233 392 1017 196 891 920 955 567 849 158 868 279 723 273 409 517 605 518 168 113 168 332 46
internal_count=5843 2209 3634 1584 625 1788 1846 233 392 1017 196 891 920 955 567 849 158 868 279 723 273 409 517 605 518 168 113 168 332 46
is_linear=0
shrinkage=0.05


Tree=3
num_leaves=31
num_cat=0
split_feature=0 0 76 0 72 0 72 0 67 70 64 58 0 0 0 60 0 52 0 64 76 69 80 81 66 81 76 81 40 61
split_gain=156448 29767.6 27065.2 5730.03 4272.12 3319.66 3121.91 1270.58 800.629 781.668 766.868 749.965 743.014 631.867 538.528 528.486 521.856 503.981 378.592 347.472 345.447 315.23 274.893 300.757 248.075 231.361 213.447 208.891 204.56 201.904
threshold=-0.20657905166977594 -1.4400195854122111 0.64437053375045206 -0.8671419915413171 1.0143031243803939 -1.960285971682717 0.29749456659681617 -2.7377627062217873 0.38857444673052027 0.42965502200695821 0.6336105964434382 0.3717995838638179 0.12077957339930649 1.3483744174083656 0.83395372087123587 -0.33522597400832949 -0.46378939993834051 1.0000000180025095e-35 -1.1185066500765053 -0.29016753339171225 0.26746811751541794 1.2634773095459588 -1.0113514871113234 -0.54105035875215257 -0.65215738299713977 0.49253530400370876 -1.3122801767289312 0.87303989831799 0.3035669458862828 -1.4832116052538094
decision_type=2 2 2 2 2 2 2 2 2 2 2 2 2 2 2 2 2 2 2 2 2 2 2 2 2 2 2 2 2 2
left_child=1 5 6 9 14 7 12 -1 16 18 24 -9 21 -6 -4 27 19 25 -3 -5 -19 22 -2 -24 -7 -8 -12 -11 -18 -21
right_child=2 3 4 8 13 10 17 11 -10 15 26 -13 -14 -15 -16 -17 28 20 -20 29 -22 -23 23 -25 -26 -27 -28 -29 -30 -31
leaf_value=-1.0566518177857271 0.047130394461971009 -0.35409231717186468 0.21976308646400114 -0.1593468157893633 0.37631970390316294 -0.51209670757805859 0.1861881414311394 -0.64425295880697309 -0.050666947603513979 -0.38932242198632316 -0.70621426945001309 -0.84011871378908887 0.058105126880785278 0.45968486176182827 0.29669161920213599 -0.23315071765599504 -0.088723553113904105 -0.036453456510888771 -0.261855014156333 -0.34973509569425842 0.11631477786677664 -0.11076551236860131 0.062728793250725542 -0.053059311630622691 -0.34572745537757876 0.060444561034091751 -0.53876449855474329 -0.51375181091328459 -0.16862398590202687 -0.22385271246662961
leaf_weight=37 149 222 453 251 557 216 428 103 168 52 71 93 465 384 457 28 197 47 223 37 174 92 68 320 25 40 26 96 135 229
leaf_count=37 149 222 453 251 557 216 428 103 168 52 71 93 465 384 457 28 197 47 223 37 174 92 68 320 25 40 26 96 135 229
internal_value=-1.03137e-09 -0.331842 0.201717 -0.223473 0.33564 -0.642715 0.0626861 -0.787919 -0.150397 -0.343149 -0.542619 -0.737189 0.0101805 0.410339 0.258396 -0.432347 -0.170131 0.146055 -0.30787 -0.201545 0.0838256 -0.0252487 -0.0105978 -0.0327666 -0.494838 0.175441 -0.661331 -0.470033 -0.121213 -0.241363
internal_weight=5843 2209 3634 1638 1851 571 1783 233 1017 621 338 196 1094 941 910 176 849 689 445 517 221 629 537 388 241 468 97 148 332 266
internal_count=5843 2209 3634 1638 1851 571 1783 233 1017 621 338 196 1094 941 910 176 849 689 445 517 221 629 537 388 241 468 97 148 332 266
is_linear=0
shrinkage=0.05


Tree=4
num_leaves=31
num_cat=0
split_feature=0 0 72 0 0 0 0 0 66 70 70 46 72 61 64 0 72 0 80 68 81 63 60 81 80 65 0 69 48 64
split_gain=141194 26865.3 24516.3 5171.35 4371.54 2995.99 2476.73 1146.7 731.962 708.144 703.859 686.116 637.328 613.639 530.515 513.154 464.882 349.622 299.251 283.055 278.855 263.276 250.943 230.834 228.406 226.238 224.176 217.877 211.8 204.836
threshold=-0.20657905166977594 -1.4400195854122111 0.60469823421834967 -0.8671419915413171 1.0911640691398004 -1.960285971682717 0.24938474753358883 -2.7377627062217873 0.22063884280933721 1.0817921395305283 0.62288083460653454 0.68169901397499999 0.79670052648180756 0.8408755664075066 -0.29016753339171225 -1.1185066500765053 1.2127054930526342 0.50659509580215356 -1.1517062124339956 1.3967721303822429 0.85377533231869052 -0.14540020025720038 -0.46281954516490248 -0.44992521383068412 1.2114299175310579 1.0000000180025095e-35 0.57089768286929454 1.4260729508952303 -1.374398930642226 0.4148210393772182
decision_type=2 2 2 2 2 2 2 2 2 2 2 2 2 2 2 2 2 2 2 2 2 2 2 2 2 2 2 2 2 2
left_child=1 5 6 9 12 7 13 -1 14 15 -7 28 26 20 18 29 -6 -8 -5 21 24 -16 -11 -10 -2 -14 -4 -23 -9 -3
right_child=2 3 4 8 16 10 17 11 23 22 -12 -13 25 -15 19 -17 -18 -19 -20 -21 -22 27 -24 -25 -26 -27 -28 -29 -30 -31
leaf_value=-1.0038192297961261 0.033377324868861129 -0.33483442863670448 0.14788806591470674 -0.030661687159112522 0.3589674781008465 -0.46938142071167627 0.094480610097639292 -0.65852740277414745 0.038893303489717451 -0.50318908871096724 -0.62840169589130257 -0.81417640010012871 0.28946816925656238 0.11975659332688778 -0.27884362676968943 -0.25373654028968923 0.43313120373892133 0.16690208676674356 -0.14418658159234946 -0.30802399557212307 -0.066331262472823893 -0.13896989119144118 -0.30545166801838652 -0.087683802829628968 -0.026171860135871201 0.13856768771432912 0.22480822387829569 -0.23869969187500445 -0.4944072370529175 -0.46136557894784053
leaf_weight=37 292 236 123 70 410 240 461 92 46 68 98 79 556 93 65 259 436 261 340 58 205 196 21 166 359 26 412 76 25 37
leaf_count=37 292 236 123 70 410 240 461 92 46 68 98 79 556 93 65 259 436 261 340 58 205 196 21 166 359 26 412 76 25 37
internal_value=3.08834e-10 -0.31525 0.191631 -0.212299 0.311452 -0.610579 0.0508719 -0.748523 -0.142877 -0.325991 -0.515488 -0.70033 0.246516 -0.00222346 -0.164645 -0.304153 0.397189 0.120661 -0.124804 -0.205999 -0.015476 -0.188439 -0.456532 -0.060219 0.000538373 0.282727 0.207124 -0.166836 -0.623459 -0.351983
internal_weight=5843 2209 3634 1638 1963 571 1671 233 1017 621 338 196 1117 949 805 532 846 722 410 395 856 337 89 212 651 582 535 272 117 273
internal_count=5843 2209 3634 1638 1963 571 1671 233 1017 621 338 196 1117 949 805 532 846 722 410 395 856 337 89 212 651 582 535 272 117 273
is_linear=0
shrinkage=0.05


Tree=5
num_leaves=31
num_cat=0
split_feature=0 72 0 0 0 0 0 0 58 70 72 6 67 64 66 69 58 81 80 81 67 76 80 45 80 71 81 69 66 81
split_gain=127461 24352.2 22484.2 4633.59 3990.36 2714.2 2047.93 1125.27 724.963 644.683 613.008 570.454 532.263 532.198 458.412 456.566 402.599 331.743 327.543 369.195 315.204 312.699 300.994 268.636 261.174 250.954 227.442 203.376 202.488 200.162
threshold=-0.27088163873691717 0.51509716449540244 -1.4400195854122111 1.0268614820726591 -0.8671419915413171 -1.8959833846155756 0.17923647073307122 -2.7377627062217873 0.3717995838638179 0.42965502200695821 1.2127054930526342 0.77772075428947518 0.42142439344647287 0.6336105964434382 -0.25212577950250442 1.2634773095459588 0.15641774677150921 0.77424815509174394 -1.0113514871113234 -0.49578106917840586 -0.75569869720849103 0.11182579275041581 -1.092542070080184 1.23390169079812 1.0278907760142004 1.0000000180025095e-35 0.6045914617394309 0.28790346145032941 -0.65215738299713977 0.04085406279792423
decision_type=2 2 2 2 2 2 2 2 2 2 2 2 2 2 2 2 2 2 2 2 2 2 2 2 2 2 2 2 2 2
left_child=2 6 5 11 9 7 15 -1 -9 17 -5 21 16 28 -11 18 22 -4 -2 -20 -18 -3 -6 -19 26 -23 -8 -22 -7 -17
right_child=1 3 4 10 12 13 24 8 -10 14 -12 -13 -14 -15 -16 29 20 23 19 -21 27 25 -24 -25 -26 -27 -28 -29 -30 -31
leaf_value=-0.95362826682425839 0.048055287532862541 0.0127916556596756 -0.19007961470847845 0.33163563801692086 -0.051020188212067219 -0.45566871563593553 0.13549631055886721 -0.57049970808675743 -0.74977861554534353 -0.4219850921747732 0.41182385536757382 0.25677792984902087 -0.044016684253553033 -0.58577359478263291 -0.1825736608012053 -0.017277357502039091 -0.27712082549786338 -0.28209731802703675 0.048289652042707104 -0.046877087380549097 -0.23359063342213632 0.20214823785393188 -0.15125977717005334 -0.41034946898196606 0.061674330043818129 0.069212368346358605 0.01699216492150141 -0.12195840834950407 -0.30465396968461578 -0.14889715931970965
leaf_weight=37 213 25 87 520 91 198 338 118 108 153 440 537 114 85 23 43 104 311 133 436 68 540 423 47 352 38 46 102 25 88
leaf_count=37 213 25 87 520 91 198 338 118 108 153 440 537 114 85 23 43 104 311 133 436 68 540 423 47 352 38 46 102 25 88
internal_value=3.27684e-10 0.174531 -0.312472 0.287454 -0.212151 -0.58005 0.0307233 -0.69802 -0.656173 -0.309692 0.368389 0.219298 -0.144998 -0.479317 -0.390698 -0.0193056 -0.159607 -0.277653 -0.0048339 -0.0246325 -0.208557 0.18592 -0.133513 -0.298935 0.0927836 0.193409 0.121301 -0.166611 -0.438739 -0.105694
internal_weight=5843 3749 2094 2100 1523 571 1649 263 226 621 960 1140 902 308 176 913 788 445 782 569 274 603 514 358 736 578 384 170 223 131
internal_count=5843 3749 2094 2100 1523 571 1649 263 226 621 960 1140 902 308 176 913 788 445 782 569 274 603 514 358 736 578 384 170 223 131
is_linear=0
shrinkage=0.05


Tree=6
num_leaves=31
num_cat=0
split_feature=0 0 0 0 0 72 72 0 46 64 81 0 36 54 70 0 0 70 63 6 66 66 81 56 0 69 46 80 80 63
split_gain=115074 21880.4 20045.6 3642.92 2975.87 2875.68 2558.08 1015.56 658.488 653.158 641.796 560.484 532.307 475.704 535.591 468.164 461.442 390.51 349.922 309.824 296.338 278.66 234.334 231.264 215.398 208.235 203.85 202.685 201.47 197.92
threshold=-0.20657905166977594 -1.3757169983450699 0.63520026993643575 -0.8671419915413171 -1.8959833846155756 1.0143031243803939 0.22709372610021469 -2.7377627062217873 0.68169901397499999 0.6336105964434382 -0.51849240043577749 -0.46378939993834051 0.67913255392694538 -0.27141875872903859 0.42965502200695821 0.050631296598788664 1.4185226942088833 1.0000000180025095e-35 1.4987497249502548 0.99245870572598149 -0.5915465339828011 0.35398271064088233 0.16214112033491626 0.20065678206830526 -1.1185066500765053 1.2634773095459588 0.24815109210874628 -0.90411079743345757 -0.746368638438626 1.1699197399087637
decision_type=2 2 2 2 2 2 2 2 2 2 2 2 2 2 2 2 2 2 2 2 2 2 2 2 2 2 2 2 2 2
left_child=1 4 6 13 7 19 15 -1 23 20 26 18 17 14 24 22 -7 -8 28 -4 -6 -19 -2 -9 -3 27 -5 -13 -12 -24
right_child=2 3 5 10 9 16 12 8 -10 -11 11 25 -14 -15 -16 -17 -18 21 -20 -21 -22 -23 29 -25 -26 -27 -28 -29 -30 -31
leaf_value=-0.90594685270979591 0.013081749746134517 -0.31043306135882937 0.20696807621314775 0.075128323421813553 -0.4176834703375728 0.33103164402288726 0.13143907650069359 -0.40349586861474179 -0.73225831514181094 -0.55008823164176235 -0.097220961080381169 -0.012677084461807512 0.186891312961315 -0.13839886535187157 -0.38575844821398675 0.036361630849253056 0.4087127961795709 -0.016111791996579423 -0.27277551618845841 0.27149705913331773 -0.23665028882026673 0.086788826655143897 -0.043802995909851442 -0.58346788502540903 -0.23504002134501936 -0.17052674336653006 -0.11486771307885646 -0.10171078302370139 -0.17523682939762114 -0.16039371220838458
leaf_weight=37 173 180 598 48 236 649 367 21 86 101 108 86 215 49 138 467 271 95 76 270 25 214 273 119 200 76 20 249 354 42
leaf_count=37 173 180 598 48 236 649 367 21 86 101 108 86 215 49 138 467 271 95 76 270 25 214 273 119 200 76 20 249 354 42
internal_value=-4.5864e-10 -0.284601 0.173 -0.185754 -0.535118 0.292322 0.0574275 -0.663119 -0.623364 -0.442123 -0.129137 -0.139769 0.118364 -0.287305 -0.301391 0.000575152 0.353914 0.0965685 -0.173354 0.22704 -0.400343 0.0551527 -0.0336713 -0.556472 -0.270753 -0.095806 0.0192471 -0.0788544 -0.156999 -0.0593484
internal_weight=5843 2209 3634 1584 625 1788 1846 263 226 362 1017 949 891 567 518 955 920 676 538 868 261 309 488 140 380 411 68 335 462 315
internal_count=5843 2209 3634 1584 625 1788 1846 263 226 362 1017 949 891 567 518 955 920 676 538 868 261 309 488 140 380 411 68 335 462 315
is_linear=0
shrinkage=0.05


Tree=7
num_leaves=31
num_cat=0
split_feature=0 0 6 0 72 72 0 0 34 81 70 72 0 72 51 0 70 76 63 0 36 67 56 81 60 69 15 72 46 68
split_gain=103855 19782.3 18155.7 3779.33 2544.85 2510.22 2240.43 697.927 686.703 579.221 558.516 547.357 505.837 416.774 407.175 402.997 374.014 325.448 315.805 281.687 280.475 278.728 265.159 240.316 199.687 187.932 186.993 184.769 183.975 183.01
threshold=-0.20657905166977594 -1.4400195854122111 0.6590497811271957 -0.8671419915413171 1.0143031243803939 0.29749456659681617 -2.0888911458169992 -2.7377627062217873 1.0000000180025095e-35 -0.51849240043577749 1.0817921395305283 1.0000000180025095e-35 -0.46378939993834051 1.2959064863667993 -1.1514784861436274 -1.1185066500765053 -0.13794580250429708 0.25663050393825676 1.4987497249502548 0.89825630793837719 -1.3971268296140613 -0.79402363504376894 0.54143212798468643 0.16214112033491626 -0.46281954516490248 1.2634773095459588 0.21045616503698877 0.51509716449540244 0.24815109210874628 1.5761008470042113
decision_type=2 2 2 2 2 2 2 2 2 2 2 2 2 2 2 2 2 2 2 2 2 2 2 2 2 2 2 2 2 2
left_child=1 6 5 10 19 11 7 -1 -8 28 15 23 18 -6 -9 29 27 -18 -11 -4 -10 -13 -16 -2 -12 -14 -24 -7 -5 -3
right_child=2 3 4 9 13 16 8 14 20 12 24 21 25 -15 22 -17 17 -19 -20 -21 -22 -23 26 -25 -26 -27 -28 -29 -30 -31
leaf_value=-0.86064951419830327 0.010887495055408276 -0.28025392747290856 0.19229994678543402 0.071371909029160949 0.3126378603065999 0.11906491706979537 -0.40072669211437867 -0.44620038398674561 -0.57950972253626043 -0.14914938688290294 -0.43677315648426029 -0.072617706097910142 -0.074911652130644713 0.38280933011991275 -0.4914519548416138 -0.21514810118123054 -0.0082975407541893871 0.11170662016618976 -0.25913673675079879 0.25175987115273107 -0.4289071444595276 0.054749515551872158 -0.75293971581892538 -0.055446358744114167 -0.26038255159343993 -0.16200040551392658 -0.61632940108361456 0.18941464856126866 -0.10912432827055454 -0.37853175805973227
leaf_weight=37 241 212 485 48 593 159 232 28 110 462 68 47 335 329 20 259 68 334 76 338 43 499 55 315 21 76 46 226 20 61
leaf_count=37 241 212 485 48 593 159 232 28 110 462 68 47 335 329 20 259 68 334 76 338 43 499 55 315 21 76 46 226 20 61
internal_value=-1.12317e-10 -0.270371 0.16435 -0.182028 0.28063 0.0569349 -0.523795 -0.666288 -0.454955 -0.12268 -0.279221 0.00822619 -0.132781 0.337677 -0.618023 -0.259826 0.12514 0.0914074 -0.164687 0.21672 -0.537184 0.0437857 -0.657784 -0.0266937 -0.395153 -0.0910157 -0.690721 0.160361 0.0182848 -0.302213
internal_weight=5843 2209 3634 1638 1745 1889 571 186 385 1017 621 1102 949 922 149 532 787 402 538 823 153 546 121 556 89 411 101 385 68 273
internal_count=5843 2209 3634 1638 1745 1889 571 186 385 1017 621 1102 949 922 149 532 787 402 538 823 153 546 121 556 89 411 101 385 68 273
is_linear=0
shrinkage=0.05


Tree=8
num_leaves=31
num_cat=0
split_feature=0 72 0 0 0 0 0 64 0 61 64 72 0 58 69 67 64 81 38 80 0 0 63 30 80 12 56 53 65 81
split_gain=93758.1 18049.2 16559.3 3365.74 2937.15 1992.6 1792.93 980.44 658.306 491.575 478.865 466.42 344.011 334.913 308.369 303.337 304.172 293.973 286.579 257.845 250.237 237.75 231.463 228.052 224.717 205.398 202.97 226.775 186.408 185.496
threshold=-0.27088163873691717 0.60469823421834967 -1.5043221724793523 -0.98405578620884637 1.0911640691398004 0.24938474753358883 -2.3519471838189401 0.6336105964434382 -0.66254285087314069 0.8408755664075066 0.85240015350965814 0.79670052648180756 1.4828252812760245 1.0000000180025095e-35 1.2634773095459588 0.18052478419615461 -0.15646280407346688 0.79448859033370722 -0.073042513926296834 -1.1517062124339956 0.44229250873501241 -1.8959833846155756 1.4987497249502548 -2.145068668029976 -0.57451608907878893 -1.5036529974833817 1.4826211786108738 -0.089355090561180239 1.0000000180025095e-35 0.04085406279792423
decision_type=2 2 2 2 2 2 2 2 2 2 2 2 2 2 2 2 2 2 2 2 2 2 2 2 2 2 2 2 2 2
left_child=2 5 6 10 11 9 13 21 15 14 26 -3 -6 -1 19 16 24 18 -10 -2 -7 -8 -19 -15 -5 -9 27 -4 -13 -21
right_child=1 4 3 8 12 20 7 25 17 -11 -12 28 -14 23 -16 -17 -18 22 -20 29 -22 -23 -24 -25 -26 -27 -28 -29 -30 -31
leaf_value=-0.55012371952717121 0.050073111964876106 0.16734313454026373 -0.2340477852306577 -0.077782704368714373 0.30771691098674192 0.069605249038749872 -0.47699189168391842 -0.63387097023628858 0.0013087368136880423 0.097669198662422754 -0.39425912430529952 0.23806432789478682 0.38500332210374921 -0.8562224489269834 -0.08422723019507547 -0.0653280016272626 -0.24680980456441476 -0.11797926648724144 -0.10292327550681013 0.011312417035843906 0.12848270323446018 -0.38205405556841904 -0.23316890793103801 -0.67762974042158863 -0.19436639828547356 -0.51049646043008379 -0.3251888863356977 -0.38582731420001776 0.10110071840194555 -0.043147279999863647
leaf_weight=26 157 535 278 62 662 366 101 74 101 98 93 558 184 33 156 47 179 301 190 261 356 190 51 39 124 62 116 27 26 390
leaf_count=26 157 535 278 62 662 366 101 74 101 98 93 558 184 33 156 47 179 301 190 261 356 190 51 39 124 62 116 27 26 390
internal_value=-6.61428e-10 0.149688 -0.267994 -0.186661 0.254222 0.0345482 -0.511066 -0.4668 -0.135545 -0.00902193 -0.291577 0.20107 0.324526 -0.70394 -0.0198681 -0.184887 -0.200282 -0.103929 -0.0667465 -0.00744235 0.0986362 -0.415005 -0.134669 -0.759485 -0.155505 -0.577627 -0.268894 -0.247484 0.231967 -0.0213132
internal_weight=5843 3749 2094 1569 1965 1784 525 427 1055 1062 514 1119 846 98 964 412 365 643 291 808 722 291 352 72 186 136 421 305 584 651
internal_count=5843 3749 2094 1569 1965 1784 525 427 1055 1062 514 1119 846 98 964 412 365 643 291 808 722 291 352 72 186 136 421 305 584 651
is_linear=0
shrinkage=0.05


Tree=9
num_leaves=31
num_cat=0
split_feature=0 0 76 0 72 0 72 0 34 81 70 72 0 76 70 70 0 6 63 15 76 67 12 81 60 60 80 80 69 81
split_gain=84649.8 16115.8 14885.7 3079.13 2372.46 1832.77 1678.11 574.917 572.052 494.112 468.805 444.693 417.142 377.089 357.17 352.36 344.497 315.338 269.501 261.508 236.71 235.838 214.528 202.005 193.265 175.777 172.198 172.151 162.716 180.319
threshold=-0.20657905166977594 -1.4400195854122111 0.64437053375045206 -0.8671419915413171 1.0143031243803939 -2.0888911458169992 0.29749456659681617 -2.7377627062217873 1.0000000180025095e-35 -0.51849240043577749 1.0817921395305283 1.0000000180025095e-35 -0.46378939993834051 1.3029551327639992 0.42965502200695821 -0.13794580250429708 -1.1185066500765053 0.93029771978383502 1.4987497249502548 0.43752063184289874 0.088007550338657758 -0.79402363504376894 -1.3756291727727941 0.16214112033491626 -1.4957198830990637 -0.46281954516490248 -0.70460551599833854 -0.90411079743345757 1.6699664129191374 1.1905896640729057
decision_type=2 2 2 2 2 2 2 2 2 2 2 2 2 2 2 2 2 2 2 2 2 2 2 2 2 2 2 2 2 2
left_child=1 5 6 10 17 7 11 -1 -7 -5 16 23 18 -6 -9 -8 -3 -4 26 -10 -17 -13 -21 -2 -16 -12 -11 -14 29 -18
right_child=2 3 4 9 13 8 15 14 19 12 25 21 27 -15 24 20 28 -19 -20 22 -22 -23 -24 -25 -26 -27 -28 -29 -30 -31
leaf_value=-0.7781150914527275 0.0098735746838677987 -0.2735083303627287 0.16504350335286858 0.019407504194361325 0.27602938711090302 -0.36107504209182384 0.14168609499075399 -0.47676659829809637 -0.55316114715627718 -0.082020033337878356 -0.39735020425389794 -0.06781588149197558 -0.028328223640650275 0.34001453361701017 -0.68423355641188444 -0.047444452149303339 -0.13893873861961767 0.22466106556414314 -0.23634434761969667 -0.48682535278553862 0.084966000112464399 0.049424841691400337 -0.31705298880736033 -0.050943336430641396 -0.51370743413766229 -0.23185625047910785 -0.15241443706041127 -0.10163240812380417 -0.29856351837515832 -0.22880173240872947
leaf_weight=37 241 273 527 68 539 232 349 71 74 116 68 47 109 402 54 38 128 383 76 49 302 491 30 315 24 21 346 302 32 99
leaf_count=37 241 273 527 68 539 232 349 71 74 116 68 47 109 402 54 38 128 383 76 49 302 491 30 315 24 21 346 302 32 99
internal_value=-1.46149e-10 -0.244095 0.148378 -0.164358 0.247698 -0.472833 0.0452708 -0.601711 -0.41057 -0.11079 -0.252087 0.00677571 -0.120119 0.303364 -0.557906 0.106394 -0.234318 0.190135 -0.149093 -0.485621 0.0701672 0.0391826 -0.422355 -0.024582 -0.631764 -0.358301 -0.13474 -0.0821916 -0.19301 -0.17813
internal_weight=5843 2209 3634 1638 1851 571 1783 186 385 1017 621 1094 949 941 149 689 532 910 538 153 340 538 79 556 78 89 462 411 259 227
internal_count=5843 2209 3634 1638 1851 571 1783 186 385 1017 621 1094 949 941 149 689 532 910 538 153 340 538 79 556 78 89 462 411 259 227
is_linear=0
shrinkage=0.05


Tree=10
num_leaves=31
num_cat=0
split_feature=0 0 6 0 72 72 0 64 46 81 0 69 76 6 80 70 0 69 76 68 30 0 28 80 68 81 62 69 46 81
split_gain=76413.6 16148.7 11982.9 3526.08 1910.62 1480.09 1397.18 808.599 718.409 403.144 392.512 371.725 337.075 323.044 303.36 299.194 293.072 254.38 249.711 237.277 235.331 228.171 205.906 199.334 196.24 195.447 193.798 188.354 197.374 179.567
threshold=-0.14227646460263468 -1.1185066500765053 0.6590497811271957 -1.8959833846155756 1.0783038884682135 0.29749456659681617 -0.66254285087314069 0.85240015350965814 0.68169901397499999 0.79448859033370722 -1.5043221724793523 1.3447751302205944 1.0099273606750576 0.21262088208814325 1.2051007265527822 -0.13794580250429708 -2.4805523579532225 1.5073707715698659 0.088007550338657758 0.90769381232234914 -2.145068668029976 1.4828252812760245 -0.390740801930545 -0.76692204682276677 1.0218120865363247 1.3565830244204118 -0.90360094583832329 0.20660564077569366 1.0000000180025095e-35 0.065164523362344448
decision_type=2 2 2 2 2 2 2 2 2 2 2 2 2 2 2 2 2 2 2 2 2 2 2 2 2 2 2 2 2 2
left_child=1 3 5 8 12 13 11 10 16 14 -5 19 -4 22 -8 -7 -1 27 -17 23 -10 -6 -2 -3 -18 -12 -16 28 -11 -13
right_child=2 6 4 7 21 15 9 -9 20 17 25 29 -14 -15 26 18 24 -19 -20 -21 -22 -23 -24 -25 -26 -27 -28 -29 -30 -31
leaf_value=-0.61175323307514196 0.031003026223150595 -0.052668495097609819 0.17485167772514734 -0.34939630380051734 0.28496661581188798 0.1390952221260815 0.0021106534062138717 -0.4385916404123229 -0.7643147775105068 -0.093990109891684603 -0.23307428703206412 -0.13282008320093155 0.23779950968634625 0.055286759648322609 0.025967011766301264 -0.046705469690464643 -0.36365937960262484 -0.19857642588516078 0.089664953475617371 -0.20975415487229437 -0.59642661650006368 0.34885674831659896 -0.02756983842596061 -0.15424313004156737 -0.49150474210020523 -0.32073919148808655 -0.099337572694531889 -0.062320257231930104 -0.20096047431675357 -0.29200096362894706
leaf_weight=30 238 61 668 203 581 378 191 123 28 121 211 22 312 324 36 37 52 72 362 154 82 184 406 232 71 91 216 199 67 91
leaf_count=30 238 61 668 203 581 378 191 123 28 121 211 22 312 324 36 37 52 72 362 154 82 184 406 232 71 91 216 199 67 91
internal_value=4.45862e-10 -0.220211 0.148469 -0.388 0.241117 0.0558206 -0.117954 -0.323631 -0.541702 -0.0794405 -0.29563 -0.179988 0.194892 0.0145643 -0.0454153 0.107218 -0.471632 -0.11228 0.0770191 -0.159506 -0.639162 0.300334 -0.00592334 -0.133096 -0.437456 -0.25949 -0.0814369 -0.0962245 -0.132113 -0.26101
internal_weight=5843 2353 3490 891 1745 1745 1462 628 263 902 505 560 980 968 443 777 153 459 399 447 110 765 644 293 123 302 252 387 188 113
internal_count=5843 2353 3490 891 1745 1745 1462 628 263 902 505 560 980 968 443 777 153 459 399 447 110 765 644 293 123 302 252 387 188 113
is_linear=0
shrinkage=0.05


Tree=11
num_leaves=31
num_cat=0
split_feature=0 72 0 0 0 0 70 6 68 0 61 81 72 64 69 71 72 80 67 52 4 15 68 59 68 72 45 81 81 80
split_gain=69024.7 13391.4 12211.6 2468.54 2165 1468.82 1380.9 614.564 522.305 488.943 485.9 372.847 360.333 358.275 291.954 283.08 261.474 258.219 244.711 244.258 203.549 239.823 183.884 207.138 177.462 172.509 171.05 160.936 158.606 154.149
threshold=-0.27088163873691717 0.60469823421834967 -1.5043221724793523 -0.98405578620884637 1.0268614820726591 0.30199595513397698 0.62288083460653454 -2.0873355977712769 1.5108904045962277 -2.2876445967517989 0.81333898854422071 1.2460037388122613 1.2127054930526342 0.85240015350965814 1.2634773095459588 1.0000000180025095e-35 0.79670052648180756 -1.2645134962754478 0.42142439344647287 0.917403113049023 -1.1635030955073935 0.21045616503698877 1.3641669091782604 -0.06094173197056358 -1.2116455659372305 -0.62411643626778324 -0.43635899578328813 1.363245050327073 0.016531455557009918 -1.1078291773310942
decision_type=2 2 2 2 2 2 2 2 2 2 2 2 2 2 2 2 2 2 2 2 2 2 2 2 2 2 2 2 2 2
left_child=2 5 6 13 15 10 9 -8 11 -1 14 18 -6 22 17 16 -3 -2 19 24 -11 -22 23 -4 -5 -13 -9 -24 -16 -26
right_child=1 4 3 8 12 -7 7 26 -10 20 -12 25 -14 -15 28 -17 -18 -19 -20 -21 21 -23 27 -25 29 -27 -28 -29 -30 -31
leaf_value=-0.51273249441927138 0.060059474211306779 0.14803449225800444 -0.19301010484561532 0.040461895890809875 0.24399730102374007 0.093717896321293237 -0.69769084794180736 -0.56034718270887407 -0.21790012744280088 -0.28226358942687513 0.087411253703267966 -0.19028600118236264 0.30547667931426659 -0.33876782517920256 -0.0072190089215492387 0.038508917218664798 0.20019700758077286 -0.014120518545554506 -0.0095944192042534664 -0.18207205004275662 -0.42092144142836335 -0.30740831043375172 -0.24501597768473396 -0.33867470401304739 -0.037663914683674068 -0.10904515631154627 -0.44916468018835243 -0.36659024438342536 -0.10924179706521131 -0.10614543271635378
leaf_weight=55 139 509 254 27 520 591 49 57 113 80 133 148 440 93 58 41 455 752 94 73 120 76 103 27 105 117 88 37 111 378
leaf_count=55 139 509 254 27 520 591 49 57 113 80 133 148 440 93 58 41 455 752 94 73 120 76 103 27 105 117 88 37 111 378
internal_value=3.92344e-10 0.128435 -0.229945 -0.1601 0.218477 0.029259 -0.438682 -0.544604 -0.116324 -0.376601 -0.00267327 -0.104139 0.272175 -0.249951 -0.0139763 0.167182 0.172655 -0.00254811 -0.0844584 -0.0965291 -0.349474 -0.376906 -0.230331 -0.207006 -0.0842847 -0.154417 -0.492871 -0.277146 -0.0742281 -0.0912581
internal_weight=5843 3749 2094 1569 1965 1784 525 194 1055 331 1193 942 960 514 1060 1005 964 891 677 583 276 196 421 281 510 265 145 140 169 483
internal_count=5843 3749 2094 1569 1965 1784 525 194 1055 331 1193 942 960 514 1060 1005 964 891 677 583 276 196 421 281 510 265 145 140 169 483
is_linear=0
shrinkage=0.05


Tree=12
num_leaves=31
num_cat=0
split_feature=0 0 0 0 72 0 76 64 46 64 81 69 28 69 0 76 0 72 80 69 64 0 68 30 68 77 71 69 80 65
split_gain=62340.7 13187.6 9843.28 2905.71 1558.89 1147.45 1142.6 663.486 591.153 412.731 345.733 343.37 341.001 322.82 304.105 273.641 244.978 210.388 206.637 242.055 208.634 206.456 196.319 194.64 174.236 171.439 174.297 172.099 166.215 161.213
threshold=-0.14227646460263468 -1.1185066500765053 0.63520026993643575 -1.8959833846155756 1.0783038884682135 -0.66254285087314069 0.35548079353444889 0.85240015350965814 0.68169901397499999 -0.15646280407346688 -0.44992521383068412 1.3447751302205944 -0.390740801930545 1.3447751302205944 -1.5043221724793523 1.0194703987035034 -2.4805523579532225 1.0000000180025095e-35 -0.8468068794845266 0.20660564077569366 1.0000000180025095e-35 1.4828252812760245 0.90769381232234914 -2.145068668029976 1.0218120865363247 1.5742166429195186 -0.096886266028548371 1.6699664129191374 -0.76692204682276677 -0.052253486323423491
decision_type=2 2 2 2 2 2 2 2 2 2 2 2 2 2 2 2 2 2 2 2 2 2 2 2 2 2 2 2 2 2
left_child=1 3 6 8 15 13 9 14 16 17 -7 18 -8 22 -5 -4 -1 -2 -12 20 -20 -6 28 -10 -18 26 27 -16 -3 -11
right_child=2 5 4 7 21 10 12 -9 23 29 11 -13 -14 -15 25 -17 24 -19 19 -21 -22 -23 -24 -25 -26 -27 -28 -29 -30 -31
leaf_value=-0.55460415025552112 0.0011534920296607874 -0.046159430199348539 0.15931209490549142 -0.31405801211892093 0.25539952296500773 0.022554796447829262 0.14226692091267301 -0.39623225830434783 -0.6922842689922879 -0.0088322718658348752 -0.019488155124137149 -0.15302388138669942 0.070373678668372228 -0.23821660584184975 -0.22047242617984703 0.21657167458332671 -0.32571237535717401 0.07299099198548871 -0.084796095513821362 -0.047800956558750052 -0.18009316963197172 0.31617348012716873 -0.18933100592732044 -0.53959908907006426 -0.4461773475395962 -0.12148725270914536 -0.37912694034369099 -0.35205070312534059 -0.13891290276801085 -0.10982948503521986
leaf_weight=30 156 61 731 203 581 88 255 123 28 487 171 140 467 113 221 292 52 294 169 247 87 184 154 82 71 30 23 28 232 43
leaf_count=30 156 61 731 203 581 88 255 123 28 487 171 140 467 113 221 292 52 294 169 247 87 184 154 82 71 30 23 28 232 43
internal_value=-2.4898e-10 -0.198902 0.134102 -0.350529 0.216029 -0.106495 0.0480364 -0.292097 -0.490056 0.0128728 -0.0715925 -0.0817706 0.0957653 -0.162712 -0.266733 0.175656 -0.426495 0.0480873 -0.0669703 -0.0831123 -0.117182 0.270017 -0.143625 -0.578464 -0.395249 -0.234922 -0.247433 -0.235268 -0.119602 -0.0170264
internal_weight=5843 2353 3490 891 1788 1462 1702 628 263 980 902 814 722 560 505 1023 153 450 674 503 256 765 447 110 123 302 272 249 293 530
internal_count=5843 2353 3490 891 1788 1462 1702 628 263 980 902 814 722 560 505 1023 153 450 674 503 256 765 447 110 123 302 272 249 293 530
is_linear=0
shrinkage=0.05


Tree=13
num_leaves=31
num_cat=0
split_feature=0 72 0 72 0 70 0 36 68 0 0 81 70 76 70 80 62 69 61 76 10 21 81 57 56 71 1 80 15 69
split_gain=56283.6 10997.6 9962.18 2084.91 2003.75 1157.75 978.608 514.214 445.285 396.948 365.097 322.429 291.526 288.468 258.799 218.013 213.789 210.873 188.686 181.138 178.048 175.98 173.302 196.494 170.036 162.802 173.178 163.229 162.757 183.631
threshold=-0.27088163873691717 0.51509716449540244 -1.5043221724793523 1.0143031243803939 -0.98405578620884637 0.62288083460653454 0.050631296598788664 -2.0956813885624372 1.5108904045962277 -2.2876445967517989 0.76965113380409489 1.2460037388122613 0.42965502200695821 1.3029551327639992 1.0817921395305283 1.0110347521158742 0.13507108237399687 1.2634773095459588 -0.50290943332083737 0.11182579275041581 -0.38839096632188014 -0.17493166946644884 -0.42679425922568071 0.93191754035670216 1.4826211786108738 -0.096886266028548371 0.83200361873320261 -0.8468068794845266 0.33660309104027208 1.5683441370758426
decision_type=2 2 2 2 2 2 2 2 2 2 2 2 2 2 2 2 2 2 2 2 2 2 2 2 2 2 2 2 2 2
left_child=2 6 5 10 12 9 17 -7 11 -1 19 16 24 -5 15 -8 22 25 20 -3 -11 -9 -6 -24 -4 26 27 -2 -14 -30
right_child=1 3 4 13 8 7 14 21 -10 18 -12 -13 28 -15 -16 -17 -18 -19 -20 -21 -22 -23 23 -25 -26 -27 -28 -29 29 -31
leaf_value=-0.46198905283839187 0.030207253087019506 -0.01477784350514412 -0.17998638008239454 0.22287088353819945 0.049512726431939658 -0.61054488250187466 0.085217379793916151 -0.49878970032832665 -0.19890401686451076 -0.28927966506885633 0.17336062025499424 -0.14062051633126893 -0.33516801661485207 0.27840520265090529 -0.0085315538593862643 0.034378157702798492 -0.10288310157236824 -0.095069705927283463 -0.17441588118672371 0.12298881394582058 -0.37344612574629621 -0.38261189414986546 -0.041428191994684713 -0.15046353154629469 -0.25507950910700944 -0.10534784830314048 0.070188608717533851 -0.038145531739025219 -0.14407467978696029 -0.306305890792125
leaf_weight=55 121 25 261 559 41 63 446 61 113 140 591 265 77 402 158 400 348 101 22 523 114 70 238 50 106 47 62 314 33 37
leaf_count=55 121 25 261 559 41 63 446 61 113 140 591 265 77 402 158 400 348 101 22 523 114 70 238 50 106 47 62 314 33 37
internal_value=2.86872e-10 0.115977 -0.207641 0.191864 -0.144555 -0.396175 0.0193365 -0.493162 -0.105116 -0.339331 0.146102 -0.093865 -0.225507 0.246102 0.0502094 0.0611799 -0.0755633 -0.0287199 -0.314888 0.116704 -0.327055 -0.43671 -0.0466658 -0.0603579 -0.201675 -0.0164012 -0.00798979 -0.0191325 -0.285005 -0.229825
internal_weight=5843 3749 2094 2100 1569 525 1649 194 1055 331 1139 942 514 961 1004 846 677 645 276 548 254 131 329 288 367 544 497 435 147 70
internal_count=5843 3749 2094 2100 1569 525 1649 194 1055 331 1139 942 514 961 1004 846 677 645 276 548 254 131 329 288 367 544 497 435 147 70
is_linear=0
shrinkage=0.05


Tree=14
num_leaves=31
num_cat=0
split_feature=0 0 76 0 72 0 0 64 61 52 24 72 69 81 81 77 38 70 71 72 70 15 0 67 69 63 80 16 69 52
split_gain=50800.6 9724.3 9073.39 2387.21 1454.64 1052.81 768.537 543.839 529.827 494.703 411.057 307.064 281.822 279.598 264.978 263.33 242.151 227.118 195.007 182.24 171.263 166.081 164.565 163.985 162.365 161.349 160.123 156.165 147.416 132.68
threshold=-0.20657905166977594 -1.1185066500765053 0.64437053375045206 -1.8959833846155756 0.93750220747501045 0.30199595513397698 -0.66254285087314069 0.85240015350965814 0.81333898854422071 -0.24423593346044062 -2.1874848176267467 1.2127054930526342 1.7512642335937729 1.3565830244204118 0.79448859033370722 1.3974507334584587 -0.073042513926296834 0.86441310035600505 -0.020210806030194216 1.0000000180025095e-35 -0.13794580250429708 -0.69780170218665083 -1.4400195854122111 0.032700023974368476 1.5073707715698659 1.4987497249502548 1.2237966472994939 0.1915182515248362 0.28790346145032941 -0.24423593346044062
decision_type=2 2 2 2 2 2 2 2 2 2 2 2 2 2 2 2 2 2 2 2 2 2 2 2 2 2 2 2 2 2
left_child=1 3 5 9 -4 8 12 13 17 -1 -11 -6 15 22 16 27 26 19 -10 -2 -7 -12 -5 -19 28 -15 -8 -3 29 -16
right_child=2 6 4 7 11 20 14 -9 18 10 21 -13 -14 25 24 -17 -18 23 -20 -21 -22 -23 -24 -25 -26 -27 -28 -29 -30 -31
leaf_value=-0.33458301913738253 -0.01768870136112231 -0.13274413435044163 0.1411196054832102 -0.25515114740077138 0.20656319401707673 0.11183951671866717 0.074703018058401835 -0.35800306635901213 0.11285415536089652 -0.62868081688880917 -0.50470475183017016 0.26066779603686513 -0.25262988262009206 -0.27080370533859005 -0.075409979248400205 -0.035113305630611963 -0.071496197547013349 -0.099927136788562854 -0.038913712486624723 0.031566211267201459 0.059683785166027153 -0.39852976301048382 -0.18349050967931244 -0.015472131860006949 -0.17008448825432707 -0.40169150020395011 -0.033942813409241636 -0.20448491066002969 -0.048941739538131517 -0.16180851300582064
leaf_weight=75 395 348 790 138 587 323 60 123 138 40 69 474 57 148 97 58 216 98 25 358 307 79 191 139 65 28 78 97 160 82
leaf_count=75 395 348 790 138 587 323 60 123 138 40 69 474 57 148 97 58 216 98 25 358 307 79 191 139 65 28 78 97 160 82
internal_value=2.03918e-10 -0.189095 0.114945 -0.316687 0.192487 0.0344466 -0.102841 -0.263723 0.00604615 -0.443154 -0.486467 0.230734 -0.147262 -0.24076 -0.0700234 -0.135321 -0.0384422 -0.00770689 0.0895769 0.00572864 0.0864239 -0.44803 -0.213549 -0.0503945 -0.0976961 -0.291627 0.0132945 -0.148382 -0.0838164 -0.114989
internal_weight=5843 2209 3634 891 1851 1783 1318 628 1153 263 188 1061 560 505 758 503 354 990 163 753 630 148 329 237 404 176 138 445 339 179
internal_count=5843 2209 3634 891 1851 1783 1318 628 1153 263 188 1061 560 505 758 503 354 990 163 753 630 148 329 237 404 176 138 445 339 179
is_linear=0
shrinkage=0.05


Tree=15
num_leaves=31
num_cat=0
split_feature=0 0 72 0 0 76 0 64 46 67 81 69 51 72 80 0 0 51 65 70 69 57 77 10 0 81 68 63 62 69
split_gain=45879.4 9726.63 7353.11 2154.45 1244.7 913.102 858.479 490.815 459.204 326.966 281.927 256.482 254.205 283.782 217.636 202.041 199.726 186.663 185.919 181.623 178.347 163.056 160.654 163.082 159.242 159.068 153.361 154.545 152.454 151.698
threshold=-0.14227646460263468 -1.1185066500765053 0.70709945675886032 -1.8959833846155756 0.30199595513397698 1.1495377747161686 -0.66254285087314069 0.85240015350965814 0.68169901397499999 0.8484737007538552 0.79448859033370722 1.3447751302205944 1.5871872997507166 -1.2641240771459772 1.2051007265527822 -2.4805523579532225 0.57089768286929454 0.19645858035124489 1.0000000180025095e-35 1.0000000180025095e-35 1.3447751302205944 -1.09795827396473 1.4583604323811854 0.48905996925124451 1.5471278683431653 1.2988323532074284 1.0218120865363247 0.10122228852391786 -0.90360094583832329 0.20660564077569366
decision_type=2 2 2 2 2 2 2 2 2 2 2 2 2 2 2 2 2 2 2 2 2 2 2 2 2 2 2 2 2 2
left_child=1 3 4 8 9 18 11 12 15 21 14 22 13 17 -8 -1 -6 19 -4 25 29 -2 23 -3 -7 -5 27 -17 -16 -12
right_child=2 6 5 7 16 24 10 -9 -10 -11 20 -13 -14 -15 28 26 -18 -19 -20 -21 -22 -23 -24 -25 -26 -27 -28 -29 -30 -31
leaf_value=-0.48131748855113987 0.031122279916347629 -0.12203646457922231 0.16365786548747027 -0.18219657964281627 0.068569647205624348 0.2253359479563577 0.0076254978164035777 -0.34010291419378147 -0.49891520118171517 0.085963546061667354 -0.1064095937726187 -0.20719902984204547 -0.31571708905200163 -0.14654511223596178 0.032121180106575296 -0.37609033698127387 0.11583115765247171 -0.18716469001221031 0.040926873273565437 -0.34983889329433443 -0.15742779187858105 -0.017031376204145045 -0.033293319283984601 -0.226150702472244 0.29301651421159802 -0.28444318036093719 -0.38437993830778233 -0.20041602475027884 -0.079016653994201796 -0.043304405593520778
leaf_weight=30 249 360 864 67 502 623 191 123 110 118 188 113 72 114 36 21 403 114 32 50 78 598 45 42 101 88 71 31 216 193
leaf_count=30 249 360 864 67 502 623 191 123 110 118 188 113 72 114 36 21 403 114 32 50 78 598 45 42 101 88 71 31 216 193
internal_value=1.7686e-10 -0.170633 0.115043 -0.300852 0.0474921 0.193018 -0.0912723 -0.250537 -0.420996 0.00798796 -0.061083 -0.139898 -0.228722 -0.214256 -0.0326293 -0.364976 0.0896154 -0.238454 0.159275 -0.266976 -0.0885449 -0.00287522 -0.122885 -0.132914 0.234778 -0.240246 -0.3366 -0.271361 -0.0631398 -0.0744429
internal_weight=5843 2353 3490 891 1870 1620 1462 628 263 965 902 560 505 433 443 153 905 319 896 205 459 847 447 402 724 155 123 52 252 381
internal_count=5843 2353 3490 891 1870 1620 1462 628 263 965 902 560 505 433 443 153 905 319 896 205 459 847 447 402 724 155 123 52 252 381
is_linear=0
shrinkage=0.05


Tree=16
num_leaves=31
num_cat=0
split_feature=0 72 0 76 0 0 64 36 68 0 72 76 71 81 70 70 57 72 62 80 4 81 15 58 81 80 10 56 15 69
split_gain=41473.2 9548.33 6318.89 1578.56 1047.57 1002.29 901.479 363.043 320.854 315.03 246.648 236.944 231.806 229.572 210.328 207.533 200.138 194.838 178.477 174.134 171.561 187.813 178.873 166.232 153.482 216.8 150.688 149.884 142.891 153.192
threshold=-0.3994868128711993 0.51509716449540244 -1.5043221724793523 1.0194703987035034 -0.98405578620884637 0.050631296598788664 0.6336105964434382 -2.0956813885624372 1.5108904045962277 -2.4805523579532225 1.2959064863667993 0.11182579275041581 1.0000000180025095e-35 1.2736193741513111 0.42965502200695821 1.0817921395305283 1.3504486360930801 0.84150106134328129 -0.33557718040971368 1.0110347521158742 -1.1635030955073935 0.91078819452601045 -0.26890215377548771 0.56325010572364798 -0.54105035875215257 -0.8468068794845266 -0.60775370021516129 1.4826211786108738 0.33660309104027208 1.5683441370758426
decision_type=2 2 2 2 2 2 2 2 2 2 2 2 2 2 2 2 2 2 2 2 2 2 2 2 2 2 2 2 2 2
left_child=2 5 6 11 14 16 9 -8 13 -1 -5 -3 17 18 27 19 24 -13 -6 -7 -11 -22 -23 -20 -2 -26 -24 -4 -16 -30
right_child=1 3 4 10 8 15 7 -9 -10 20 -12 12 -14 -15 28 -17 -18 -19 23 -21 21 22 26 -25 25 -27 -28 -29 29 -31
leaf_value=-0.43841752951795404 0.041919502222307906 -0.020187549891748601 -0.15205704479414073 0.19321294376738427 -0.026025659226780309 0.074391145066195277 -0.5310763221676067 -0.38152766178433711 -0.18604490274935961 -0.21548358815557817 0.24657943668049592 0.11858372796086868 0.020896716969448847 -0.13572646158966511 -0.29020195633366513 -0.0095178220946418382 -0.094147168315464158 0.1670137322871949 -0.075975838833636497 0.02895519423624501 -0.17311370399995493 -0.36023705678326745 -0.14663201219269209 -0.16203462862827378 0.013032583510143242 -0.048625864574016436 -0.3004073748534376 -0.22256012014201226 -0.11317590755043608 -0.26135222025819727
leaf_weight=33 85 28 261 683 145 446 59 130 100 85 317 738 49 204 77 158 108 289 321 400 26 105 21 68 207 458 66 106 33 37
leaf_count=33 85 28 261 683 145 446 59 130 100 85 317 738 49 204 77 158 108 289 321 400 26 105 21 68 207 458 66 106 33 37
internal_value=-2.60972e-10 0.0916414 -0.193633 0.164625 -0.136466 0.00917244 -0.340853 -0.428212 -0.101996 -0.291714 0.21013 0.123406 0.127143 -0.0906077 -0.192663 0.0430844 -0.0305101 0.132212 -0.0733714 0.0529084 -0.275736 -0.299229 -0.316308 -0.0910195 -0.0213463 -0.0294329 -0.263289 -0.17242 -0.2432 -0.191498
internal_weight=5843 3966 1877 2104 1352 1862 525 189 838 336 1000 1104 1076 738 514 1004 858 1027 534 846 303 218 192 389 750 665 87 367 147 70
internal_count=5843 3966 1877 2104 1352 1862 525 189 838 336 1000 1104 1076 738 514 1004 858 1027 534 846 303 218 192 389 750 665 87 367 147 70
is_linear=0
shrinkage=0.05


Tree=17
num_leaves=31
num_cat=0
split_feature=0 0 72 0 0 0 75 81 52 64 24 69 66 81 69 67 80 81 45 63 57 57 57 72 0 62 63 10 64 63
split_gain=37447.6 8649.62 5394 1777.18 845.353 830.843 739.83 445.892 400.89 400.37 342.078 272.776 258.373 233.473 225.583 215.909 204.48 159.18 155.973 149.004 144.974 169.98 156.052 144.844 143.627 132.984 131.705 126.652 123.344 176.596
threshold=-0.077973877535493633 -1.1185066500765053 0.70709945675886032 -1.8959833846155756 0.44229250873501241 -0.66254285087314069 1.1486533920145612 -1.1793363712376099 -0.24423593346044062 0.85240015350965814 -2.1874848176267467 1.5073707715698659 0.77825865374125314 1.3565830244204118 1.7512642335937729 0.18052478419615461 -1.1374156260610897 1.0341347272874706 1.4097186051751103 -0.14540020025720038 -1.09795827396473 -0.07255708941060468 1.6852735126821823 1.4367081673600017 0.96255889500551828 -0.30311867952808075 1.4987497249502548 1.0000000180025095e-35 -0.15646280407346688 0.26563728104466339
decision_type=2 2 2 2 2 2 2 2 2 2 2 2 2 2 2 2 2 2 2 2 2 2 2 2 2 2 2 2 2 2
left_child=1 3 4 8 12 14 24 -7 -1 13 -10 17 16 20 15 28 18 25 -2 -12 -5 -22 -23 -8 -4 -9 -15 -27 -3 -30
right_child=2 5 6 9 -6 7 23 11 10 -11 19 -13 -14 26 -16 -17 -18 -19 -20 -21 21 22 -24 -25 -26 27 -28 -29 29 -31
leaf_value=-0.28318436335648101 0.066044169144218109 -0.10379364391204482 0.12741329110900659 -0.14020771592180425 0.093199654093031228 0.15359700274868654 0.20342524545139648 0.003252597312577328 -0.54964454114437111 -0.30699711618869285 -0.45103899262569569 -0.1173766299380691 0.068906187123308579 -0.23406945561134332 -0.22070065308035469 -0.018224866695555987 -0.0059187800277530509 -0.07438712831512341 -0.048456056900322439 -0.34682185581706942 -0.29626965467644811 -0.15148347578773447 -0.26032871844920707 0.26459467369934608 0.1673018141996627 -0.029072724571597066 -0.35232399462589198 -0.095669455728446595 -0.23065906832354113 -0.12626098449474998
leaf_weight=75 198 255 505 129 649 26 584 201 40 123 54 154 225 148 57 51 635 301 35 94 43 110 47 116 408 256 28 99 57 140
leaf_count=75 198 255 505 129 649 26 584 201 40 123 54 154 225 148 57 51 635 301 35 94 43 110 47 116 408 256 28 99 57 140
internal_value=-1.66155e-11 -0.146989 0.109004 -0.271801 0.0479982 -0.0773538 0.174889 -0.0508516 -0.38092 -0.226104 -0.41991 -0.0561094 0.0211585 -0.206401 -0.12643 -0.115747 0.00878152 -0.0450999 0.0488446 -0.384847 -0.181535 -0.208191 -0.184068 0.213562 0.145239 -0.0292448 -0.252883 -0.0476448 -0.126751 -0.156468
internal_weight=5843 2488 3355 891 1742 1597 1613 1037 263 628 188 1011 1093 505 560 503 868 857 233 148 329 200 157 700 913 556 176 355 452 197
internal_count=5843 2488 3355 891 1742 1597 1613 1037 263 628 188 1011 1093 505 560 503 868 857 233 148 329 200 157 700 913 556 176 355 452 197
is_linear=0
shrinkage=0.05


Tree=18
num_leaves=31
num_cat=0
split_feature=0 0 0 72 0 76 70 6 57 66 58 71 74 0 75 67 80 68 64 71 61 81 0 81 69 63 4 15 33 57
split_gain=33838.1 7798.86 5197.49 1275.18 836.494 831.914 752.515 346.325 304.356 283.218 304.391 249.879 250.908 243.689 220.874 193.347 189.235 171.774 194.439 168.021 150.904 142.929 142.19 139.698 152.86 156.365 135.972 188.764 125.752 121.705
threshold=-0.3994868128711993 0.50659509580215356 -1.5043221724793523 0.93750220747501045 -0.98405578620884637 0.28561473497082168 0.62288083460653454 -2.0873355977712769 -1.09795827396473 -0.14908733617812875 0.56325010572364798 -0.023544521682296579 0.61770587855377113 -2.2876445967517989 1.2520281830469278 -1.023973262055436 -0.80734214929776371 -0.23348892981742467 0.4148210393772182 -0.096886266028548371 -0.50290943332083737 0.64820725569772686 0.76965113380409489 0.5378419932084898 0.20660564077569366 -0.885267666600555 -1.1635030955073935 0.21045616503698877 -0.45613216513404781 -0.07255708941060468
decision_type=2 2 2 2 2 2 2 2 2 2 2 2 2 2 2 2 2 2 2 2 2 2 2 2 2 2 2 2 2 2
left_child=2 5 6 22 17 8 13 -8 -2 10 16 12 -7 -1 -5 -10 -6 -4 -19 29 26 -20 -3 24 25 -11 -15 -28 -9 -17
right_child=1 3 4 14 9 11 7 28 15 23 -12 -13 -14 20 -16 19 -18 18 21 -21 -22 -23 -24 -25 -26 -27 27 -29 -30 -31
leaf_value=-0.35869968305934563 0.020764502619711262 0.092125121972299592 -0.0966289039264666 0.17069216901108419 -0.039278494442502664 0.045135738679775619 -0.50153495632872291 -0.40016315039247274 -0.09675291929431637 0.055949164144694807 -0.18334352863871534 -0.026953995579122744 0.11687399010231209 -0.19616071617541214 0.21783691947894201 -0.07068932960138602 -0.11084250251478905 -0.16469267340713983 -0.14109551193458694 -0.09724777625764118 -0.11781956489113243 -0.2706192246816132 0.12975410901291193 -0.076854794817113326 0.076287260539829732 -0.12226870390586556 -0.31758971948708808 -0.21292318980076483 -0.30638985758946269 -0.0066746136357649227
leaf_weight=55 426 530 64 653 123 382 49 64 99 20 115 79 179 72 401 85 371 333 28 68 22 89 477 137 40 32 112 70 81 587
leaf_count=55 426 530 64 653 123 382 49 64 99 20 115 79 179 72 401 85 371 333 28 68 22 89 477 137 40 32 112 70 81 587
internal_value=2.38638e-12 0.0827772 -0.174904 0.150186 -0.123056 0.0098481 -0.308423 -0.386615 -0.013654 -0.0922548 -0.110079 0.0563015 0.0680255 -0.262594 0.188629 -0.0311299 -0.0930239 -0.173274 -0.184174 -0.0223506 -0.243443 -0.239622 0.109949 -0.0448525 0.00280299 -0.0537234 -0.254324 -0.277333 -0.347779 -0.0147717
internal_weight=5843 3966 1877 2061 1352 1905 525 194 1265 838 609 640 561 331 1054 839 494 514 450 740 276 117 1007 229 92 52 254 182 145 672
internal_count=5843 3966 1877 2061 1352 1905 525 194 1265 838 609 640 561 331 1054 839 494 514 450 740 276 117 1007 229 92 52 254 182 145 672
is_linear=0
shrinkage=0.05


Tree=19
num_leaves=31
num_cat=0
split_feature=0 0 36 0 0 72 0 81 0 64 56 68 81 70 67 69 69 72 80 81 70 71 80 57 57 57 72 72 64 63
split_gain=30596.9 7051.86 4391.6 1459.09 700.808 687.966 674.532 356.221 341.858 328.312 255.601 251.792 208.063 207.533 205.836 204.679 182.952 162.989 155.209 166.917 130.529 129.783 127.349 127.186 149.482 135.146 121.233 120.942 118.841 114.954
threshold=-0.077973877535493633 -1.1185066500765053 0.77615402044755333 -1.8959833846155756 0.30199595513397698 1.0783038884682135 -0.53393767673885828 -1.1793363712376099 -2.7377627062217873 0.85240015350965814 0.15197458979453518 0.87508859111834825 1.3565830244204118 0.42965502200695821 0.82109874515722792 1.5683441370758426 1.6699664129191374 0.51509716449540244 -0.746368638438626 0.42349875089994027 1.0817921395305283 1.0000000180025095e-35 -0.88526952784448276 -1.09795827396473 -0.07255708941060468 1.6852735126821823 1.4815087022214757 0.79670052648180756 0.4148210393772182 1.4987497249502548
decision_type=2 2 2 2 2 2 2 2 2 2 2 2 2 2 2 2 2 2 2 2 2 2 2 2 2 2 2 2 2 2
left_child=1 3 4 8 14 27 11 -8 -1 12 -10 16 23 -12 20 -9 18 -6 -3 -20 22 -16 -2 -5 -25 -26 -7 -4 -13 -14
right_child=2 6 5 9 17 26 7 15 10 -11 13 28 29 -15 21 -17 -18 -19 19 -21 -22 -23 -24 24 25 -27 -28 -29 -30 -31
leaf_value=-0.48532023019081838 0.046148487999109117 -0.013149221328256484 0.10424628044299192 -0.12413056203878897 0.053249284411403322 0.18590601569791437 0.14666085532307624 -0.035341776485965024 -0.1633962781532951 -0.27740831070587163 -0.28641855037703956 -0.12367955272678624 -0.21261673415004201 -0.38762835182671279 0.091483891919847127 -0.11011460959024373 -0.1725599522866747 0.096763122138426694 -0.01846650369465351 -0.10485149256059256 -0.041265931645584474 -0.047279106783680622 -0.0043194466726946658 -0.27040400110011875 -0.13486157461492854 -0.23615365117154222 0.25884138711037175 0.14222638654457623 -0.1998789126350396 -0.32309548653928299
leaf_weight=37 181 88 353 129 437 703 25 713 23 123 97 198 148 106 107 105 51 424 70 278 148 20 404 43 110 47 62 516 69 28
leaf_count=37 181 88 353 129 437 703 25 713 23 123 97 198 148 106 107 105 51 424 70 278 148 20 404 43 110 47 62 516 69 28
internal_value=8.49874e-11 -0.132865 0.0985303 -0.245562 0.0427897 0.157239 -0.0699896 -0.0392577 -0.344434 -0.204155 -0.321369 -0.104349 -0.186313 -0.339267 0.0108647 -0.0449398 -0.0829549 0.0746777 -0.0724736 -0.0874752 0.000682759 0.0696315 0.0112954 -0.16284 -0.187807 -0.165185 0.191817 0.126798 -0.143372 -0.230193
internal_weight=5843 2488 3355 891 1721 1634 1597 843 263 628 226 754 505 203 860 818 487 861 436 348 733 127 585 329 200 157 765 869 267 176
internal_count=5843 2488 3355 891 1721 1634 1597 843 263 628 226 754 505 203 860 818 487 861 436 348 733 127 585 329 200 157 765 869 267 176
is_linear=0
shrinkage=0.05


Tree=20
num_leaves=31
num_cat=0
split_feature=0 0 72 0 0 0 76 34 81 64 15 69 67 66 69 69 64 81 20 81 81 45 69 64 44 67 81 65 52 37
split_gain=27613.7 6364.3 3979.07 1321.99 618.407 617.826 557.017 402.423 347.991 240.145 229.189 209.484 209.329 189.6 189.248 228.201 211.342 177.045 175.986 155.032 146.102 143.058 140.694 340.782 134.982 132.266 129.913 127.586 123.777 122.298
threshold=-0.077973877535493633 -1.1185066500765053 0.70709945675886032 -1.7907609694147992 -0.66254285087314069 0.37798992166787115 1.1495377747161686 1.0000000180025095e-35 -1.1793363712376099 0.4148210393772182 1.2448609582639121 1.5073707715698659 0.8484737007538552 -0.43395832654552063 1.0060342107429454 0.20660564077569366 1.0000000180025095e-35 0.87303989831799 1.3849890466594477 -0.11714053431634523 1.2573200646410096 1.5855355195521006 0.1253078201010579 1.0000000180025095e-35 0.31647387977205554 -1.5167224627947233 0.065164523362344448 1.0000000180025095e-35 -0.37665074705219287 -1.2467675162840666
decision_type=2 2 2 2 2 2 2 2 2 2 2 2 2 2 2 2 2 2 2 2 2 2 2 2 2 2 2 2 2 2
left_child=1 3 5 7 14 12 27 24 -6 13 -9 22 28 20 15 16 -3 -11 -12 -16 -5 25 23 -10 -1 -22 -24 -4 -2 -27
right_child=2 4 6 9 8 -7 -8 10 11 17 18 -13 -14 -15 19 -17 -18 -19 -20 -21 21 -23 26 -25 -26 29 -28 -29 -30 -31
leaf_value=-0.12749765932559967 0.03053634957617013 -0.089885892145595961 0.12727595211713877 -0.14134482350581537 0.13698921836196229 0.074584314631360921 0.18275015174272313 -0.41698309685225071 -0.030157725718805803 -0.15011132203973832 -0.24269390342866673 -0.10196147234928976 0.070730105624862122 -0.041545608400234156 -0.035154622962529011 -0.029419641934950419 -0.18659142784277599 -0.27251320922401101 -0.37608322963739438 -0.17909180656224488 -0.14149784483015537 -0.30291918208522184 0.047449663502277077 -0.12483667225429887 -0.26823548123240476 -0.31260219452709986 -0.02949374643226978 0.024024167272352404 -0.0096251250334091123 -0.19049262524715493
leaf_weight=20 302 229 858 168 26 772 724 92 333 40 51 154 142 28 22 109 75 113 48 125 86 31 66 133 115 29 325 31 526 70
leaf_count=20 302 229 858 168 26 772 724 92 333 40 51 154 142 28 22 109 75 113 48 125 86 31 66 133 115 29 325 31 526 70
internal_value=-5.3804e-11 -0.126222 0.0936037 -0.233284 -0.0664902 0.0412066 0.150191 -0.313463 -0.0436258 -0.187021 -0.360167 -0.0482707 0.0146421 -0.167156 -0.10883 -0.091489 -0.113744 -0.240513 -0.307368 -0.15755 -0.176316 -0.203515 -0.0386226 -0.0571798 -0.247385 -0.186858 -0.0165059 0.123675 0.00502314 -0.226262
internal_weight=5843 2488 3355 891 1597 1742 1613 326 1037 565 191 1011 970 412 560 413 304 153 99 147 384 216 857 466 135 185 391 889 828 99
internal_count=5843 2488 3355 891 1597 1742 1613 326 1037 565 191 1011 970 412 560 413 304 153 99 147 384 216 857 466 135 185 391 889 828 99
is_linear=0
shrinkage=0.05


Tree=21
num_leaves=31
num_cat=0
split_feature=0 72 0 72 0 64 0 54 75 0 62 0 59 81 12 68 81 66 58 80 16 77 71 69 72 81 4 68 10 80
split_gain=24963 5387.96 4189.06 963.879 708.465 578.188 552.523 264.557 247.062 246.081 241.185 206.787 200.546 182.418 197.45 183.917 167.051 149.004 137.056 136.445 134.44 133.059 126.594 122.841 121.994 114.197 107.684 107.421 106.317 131.818
threshold=-0.33518422580405821 0.51509716449540244 -1.5043221724793523 1.0783038884682135 -0.8671419915413171 0.6336105964434382 0.12077957339930649 -0.27141875872903859 -1.8305817480118736 0.83395372087123587 0.16752958325562065 -2.4805523579532225 0.38511176449944956 1.1279995286660209 -1.2476053480622069 1.4619825727902449 1.1279995286660209 0.56005959728963406 -0.32220855787806552 -0.4383132459032546 -0.23003232841286814 1.7846319664707593 1.0000000180025095e-35 1.2634773095459588 1.4367081673600017 -0.51849240043577749 -0.58071257212155858 0.27189199884447884 -0.38839096632188014 0.94066959298536179
decision_type=2 2 2 2 2 2 2 2 2 2 2 2 2 2 2 2 2 2 2 2 2 2 2 2 2 2 2 2 2 2
left_child=2 6 5 9 7 11 16 12 -7 22 19 -1 13 -4 15 -15 17 23 -12 -6 -8 28 -3 26 -5 -21 -2 -16 -13 -30
right_child=1 3 4 24 10 8 20 -9 -10 -11 18 21 -14 14 27 -17 -18 -19 -20 25 -22 -23 -24 -25 -26 -27 -28 -29 29 -31
leaf_value=-0.34501928680886829 0.024353329122794289 0.086202001851596044 -0.11057543706182762 0.16318254142317323 0.011038214453301222 -0.41537052337080244 0.059758619857294595 -0.026795726489959933 -0.29457274514436721 0.12429380221247531 -0.067661479187365842 -0.19552585114724935 -0.29236343114272406 -0.091305024400103976 -0.1556404552422464 -0.19755723411217332 -0.065323604304682134 0.032390841434244068 -0.12562574017696929 0.046727348243196805 0.020133419746107741 -0.12153057610349996 -0.005477130392100662 -0.075531912031908371 0.21807693450891674 -0.067356481940608809 -0.026503805587235002 -0.24007332971474776 -0.28149410923854229 -0.14426747721708602
leaf_weight=33 151 642 261 677 98 64 391 49 125 623 215 142 23 112 62 64 154 174 194 24 473 35 40 86 119 255 335 96 105 21
leaf_count=33 151 642 261 677 98 64 391 49 125 623 215 142 23 112 62 64 154 174 194 24 473 35 40 86 119 255 335 96 105 21
internal_value=-1.36845e-10 0.073933 -0.144465 0.128026 -0.100726 -0.265516 0.00950552 -0.138627 -0.335478 0.101577 -0.068564 -0.226162 -0.147494 -0.141894 -0.166367 -0.129942 -0.0179122 -0.00812488 -0.0951555 -0.0397154 0.0380657 -0.213217 0.0808249 -0.0204496 0.171389 -0.0575428 -0.0107025 -0.206941 -0.225191 -0.258623
internal_weight=5843 3865 1978 2101 1453 525 1764 667 189 1305 786 336 618 595 334 176 900 746 409 377 864 303 682 572 796 279 486 158 268 126
internal_count=5843 3865 1978 2101 1453 525 1764 667 189 1305 786 336 618 595 334 176 900 746 409 377 864 303 682 572 796 279 486 158 268 126
is_linear=0
shrinkage=0.05


Tree=22
num_leaves=31
num_cat=0
split_feature=0 0 0 72 67 0 70 0 6 68 71 63 81 72 0 77 71 75 65 68 68 61 69 52 63 69 15 2 68 51
split_gain=22548.2 5232.91 3493.46 857.153 605.642 539.288 525.904 316.792 257.478 223.869 205.347 191.31 174.25 167.516 167.325 146.828 183.078 145.628 136.125 202.355 135.151 117.746 117.355 116.314 146.788 115.134 113.889 111.673 123.156 118.072
threshold=-0.3994868128711993 0.50659509580215356 -1.5043221724793523 0.93750220747501045 0.66232400269679104 -0.98405578620884637 0.62288083460653454 0.12077957339930649 -2.0873355977712769 1.5108904045962277 -0.096886266028548371 1.2521272361691367 1.2736193741513111 1.3471070976370545 -2.2876445967517989 1.5742166429195186 -0.096886266028548371 0.8200927504530896 1.0000000180025095e-35 -1.2442507871412316 1.5761008470042113 -0.50290943332083737 1.8325620542684089 1.0000000180025095e-35 -0.72085267407980946 1.6699664129191374 0.63935571344815212 0.63305714566630022 0.63054943208839676 0.19645858035124489
decision_type=2 2 2 2 2 2 2 2 2 2 2 2 2 2 2 2 2 2 2 2 2 2 2 2 2 2 2 2 2 2
left_child=2 4 6 -3 7 15 14 11 -8 12 17 23 18 -5 26 16 20 -6 19 -7 27 25 -21 -2 -25 -16 -1 28 -4 -29
right_child=1 3 5 13 10 9 8 -9 -10 -11 -12 -13 -14 -15 21 -17 -18 -19 -20 22 -22 -23 -24 24 -26 -27 -28 29 -30 -31
leaf_value=-0.35231103492957172 -0.00019179307924313541 0.089799910235667718 -0.13146380609719679 0.14436336479475834 0.0546585104466095 0.10786840096116067 -0.41669537437205417 0.021753014631383124 -0.2841213360223277 -0.1457425976167433 -0.024787501107297234 -0.081530250986734179 -0.10533204348940475 0.19426768111331125 -0.19558458465648196 -0.056352574249452107 -0.25738938256270355 0.14127905295653778 -0.14221200807706308 -0.045128516877890129 -0.18432564816127223 -0.08709156459028071 -0.16090865566030793 -0.097256539087919966 -0.020117394630757065 -0.30143623808077696 -0.20544411262327975 -0.13450222489959066 -0.24810887862896097 -0.052404805281903694
leaf_weight=33 407 1007 103 844 412 21 49 500 145 100 74 141 204 210 225 47 36 55 38 452 123 22 23 84 232 29 22 94 29 82
leaf_count=33 407 1007 103 844 412 21 49 500 145 100 74 141 204 210 225 47 36 55 38 452 123 22 23 84 232 29 22 94 29 82
internal_value=-1.711e-10 0.0675715 -0.142775 0.122789 0.00783269 -0.100268 -0.25224 -0.00992236 -0.317607 -0.0755368 0.0525977 -0.028253 -0.0660238 0.154306 -0.213928 -0.140589 -0.149067 0.0648601 -0.0510071 -0.0440197 -0.140019 -0.198059 -0.0507347 -0.0178629 -0.0406227 -0.20767 -0.293564 -0.122326 -0.15709 -0.0962523
internal_weight=5843 3966 1877 2061 1905 1352 525 1364 194 838 541 864 738 1054 331 514 467 467 534 496 431 276 475 723 316 254 55 308 132 176
internal_count=5843 3966 1877 2061 1905 1352 525 1364 194 838 541 864 738 1054 331 514 467 467 534 496 431 276 475 723 316 254 55 308 132 176
is_linear=0
shrinkage=0.05


Tree=23
num_leaves=31
num_cat=0
split_feature=0 0 72 0 0 0 6 81 52 24 66 34 69 77 81 63 65 37 68 65 80 81 67 39 64 63 80 81 45 45
split_gain=20362.1 5122.84 2636.74 998.177 557.826 483.16 298.375 269.243 264.482 235.589 234.161 253.616 215.132 194.837 172.823 153.957 150.562 147.276 146.45 139.317 136.269 127.371 157.42 120.772 149.232 119.658 117.684 112.377 109.961 214.942
threshold=-0.037054049401858392 -1.1185066500765053 0.79670052648180756 -1.8959833846155756 -0.46378939993834051 0.44229250873501241 1.2411026494945674 -1.1793363712376099 -0.24423593346044062 -2.1874848176267467 -0.65215738299713977 -0.13995012475401353 1.7512642335937729 1.5018065113330608 0.85377533231869052 1.2521272361691367 1.0000000180025095e-35 1.1195852110263236 1.6087060682082119 -0.052253486323423491 -1.1227885048932953 1.3565830244204118 -1.4236476137661913 0.48629711813544929 0.85240015350965814 0.18342978478429064 0.88495454178005206 0.6045914617394309 -1.2275351104797443 1.0000000180025095e-35
decision_type=2 2 2 2 2 2 2 2 2 2 2 2 2 2 2 2 2 2 2 2 2 2 2 2 2 2 2 2 2 2
left_child=1 3 5 8 12 17 -4 -6 -1 -10 11 21 13 16 -13 20 18 19 28 26 -9 -5 -23 -11 -25 -22 27 -2 -3 -30
right_child=2 4 6 10 7 -7 -8 15 9 23 -12 14 -14 -15 -16 -17 -18 -19 -20 -21 25 22 -24 24 -26 -27 -28 -29 29 -31
leaf_value=-0.20276225589464111 0.059473272296032165 -0.037450366309338116 0.11597443137295041 -0.12551427596457262 0.11962996742898419 0.072499366600515092 0.16238954905606187 0.020528230544337944 -0.42148048669099814 -0.34019284874705946 -0.095965455100405966 -0.13089163047926766 -0.15916082124559233 -0.0039143824641163765 -0.24415493465521756 -0.08047012829436706 -0.18671618668418943 0.15126943488915762 -0.13441195402507827 -0.050476523452172323 -0.054723423135829931 -0.14343711392418163 -0.25792640246012632 -0.16938501009717585 -0.30130391030941372 -0.0088341898736917848 0.0055343216665097198 0.002350864272443502 -0.16624674934034167 -0.066131483818620468
leaf_weight=75 287 197 815 192 31 822 602 153 40 59 100 42 81 89 170 130 33 21 96 70 295 73 51 36 53 274 462 123 65 306
leaf_count=75 287 197 815 192 31 822 602 153 40 59 100 42 81 89 170 130 33 21 96 70 295 73 51 36 53 274 462 123 65 306
internal_value=-9.30247e-11 -0.102776 0.084769 -0.200369 -0.0530865 0.0443432 0.135693 -0.0251141 -0.282147 -0.313817 -0.166121 -0.179408 -0.0815751 -0.0735796 -0.221716 -0.0303806 -0.0824751 0.0203096 -0.0772945 0.0173901 -0.0213617 -0.151025 -0.190525 -0.284719 -0.247943 -0.0326256 0.0228381 0.0423365 -0.0676408 -0.0836719
internal_weight=5843 2641 3202 891 1750 1785 1417 883 263 188 628 528 867 786 212 852 697 963 664 942 722 316 124 148 89 569 872 410 568 371
internal_count=5843 2641 3202 891 1750 1785 1417 883 263 188 628 528 867 786 212 852 697 963 664 942 722 316 124 148 89 569 872 410 568 371
is_linear=0
shrinkage=0.05


Tree=24
num_leaves=31
num_cat=0
split_feature=0 0 36 0 0 72 0 10 81 6 69 64 77 38 64 65 81 68 65 67 80 21 70 62 16 81 33 0 77 67
split_gain=18376.8 4623.37 2383.49 903.323 503.438 413.689 320.98 295.143 242.992 221.191 194.157 177.082 175.84 152.096 141.259 135.882 135.365 132.171 127.477 131.255 127.293 119.676 111.486 105.608 105.384 102.876 102.031 94.5899 90.699 93.0925
threshold=-0.037054049401858392 -1.1185066500765053 0.77615402044755333 -1.7907609694147992 -0.46378939993834051 1.0783038884682135 0.37798992166787115 -0.16902823242859905 -1.1793363712376099 -2.0873355977712769 1.7512642335937729 0.4148210393772182 1.5018065113330608 1.3275152546787961 1.4176065092640593 1.0000000180025095e-35 0.62649208191275896 1.6087060682082119 -0.052253486323423491 0.79372378956060108 -1.192516980047879 -0.17493166946644884 -0.13794580250429708 1.108826108823042 -0.44080761838172028 1.1905896640729057 0.29141592119838539 1.5471278683431653 1.5742166429195186 -1.4619725516014692
decision_type=2 2 2 2 2 2 2 2 2 2 2 2 2 2 2 2 2 2 2 2 2 2 2 2 2 2 2 2 2 2
left_child=1 3 6 7 10 -4 18 26 -6 -9 12 13 15 28 20 17 -13 25 19 -2 -10 -11 -8 -23 -15 -3 -1 -7 29 -5
right_child=2 4 5 11 8 27 22 9 14 21 -12 16 -14 24 -16 -17 -18 -19 -20 -21 -22 23 -24 -25 -26 -27 -28 -29 -30 -31
leaf_value=-0.22232889611931408 0.010686815631177807 -0.047214034853255475 0.099195194526467023 -0.073064770200289786 0.11364847020276132 0.14278410966248611 0.081049552548874415 -0.35962212250844855 0.02264441920832979 -0.30344151560939964 -0.15120278133286372 -0.094100880336302983 -0.0037186641481527119 -0.13810041617116203 -0.077731455336250962 -0.17738037867979572 -0.21932269355692849 -0.12769135613149654 -0.055466063194355722 0.062614042088636107 -0.030568095998058344 -0.14421930983662606 0.042015176528031058 -0.25992903855382182 -0.21459355439890074 -0.090824050218630423 -0.11726173315729414 0.1947212794039509 -0.037821063396926875 -0.14773640618426725
leaf_weight=68 627 346 867 64 31 664 351 74 139 67 81 26 89 115 126 33 127 96 59 151 587 33 382 49 74 222 35 101 39 120
leaf_count=68 627 346 867 64 31 664 351 74 139 67 81 26 89 115 126 33 127 96 59 151 587 33 382 49 74 222 35 101 39 120
internal_value=-1.29333e-10 -0.0976368 0.0805305 -0.190351 -0.0504322 0.122842 0.0365484 -0.256629 -0.0238584 -0.288961 -0.0774963 -0.152109 -0.0699006 -0.135051 -0.0288616 -0.0783514 -0.198043 -0.0734298 0.0153917 0.0207652 -0.02038 -0.253868 0.0607069 -0.213363 -0.16805 -0.0642588 -0.186626 0.149641 -0.107083 -0.121764
internal_weight=5843 2641 3202 891 1750 1632 1570 326 883 223 867 565 786 412 852 697 153 664 837 778 726 149 733 82 189 568 103 765 223 184
internal_count=5843 2641 3202 891 1750 1632 1570 326 883 223 867 565 786 412 852 697 153 664 837 778 726 149 733 82 189 568 103 765 223 184
is_linear=0
shrinkage=0.05


Tree=25
num_leaves=31
num_cat=0
split_feature=0 6 0 0 6 72 70 71 36 54 80 62 28 59 81 12 69 4 15 64 16 69 70 81 21 63 56 62 0 15
split_gain=16600 3376.66 3052.75 573.287 499.604 442.681 398.232 247.378 200.669 200.418 180.435 178.95 175.291 155.679 144.319 169.309 163.326 137.413 208.459 137.351 134.903 132.804 116.367 115.33 114.104 108.38 108.368 106.456 103.775 103.377
threshold=-0.27088163873691717 0.6590497811271957 -1.5043221724793523 -0.8671419915413171 0.21262088208814325 1.1551048053735968 0.62288083460653454 -0.096886266028548371 -2.0956813885624372 -0.27141875872903859 -1.2645134962754478 0.16752958325562065 -0.390740801930545 0.38511176449944956 1.1279995286660209 -1.2476053480622069 1.1821794888713228 -1.1635030955073935 0.21045616503698877 1.0000000180025095e-35 0.1915182515248362 1.2634773095459588 0.42965502200695821 -0.51849240043577749 -0.17493166946644884 1.1699197399087637 0.37915815373879241 1.3684941158761152 0.96255889500551828 2.2540363662901783
decision_type=2 2 2 2 2 2 2 2 2 2 2 2 2 2 2 2 2 2 2 2 2 2 2 2 2 2 2 2 2 2
left_child=2 4 6 9 7 28 17 10 -8 13 22 20 -6 14 -4 16 27 -1 -19 -13 23 26 -2 -5 -10 -25 -12 -16 -3 -20
right_child=1 5 3 11 12 -7 8 -9 24 -11 21 19 -14 -15 15 -17 -18 18 29 -21 -22 -23 -24 25 -26 -27 -28 -29 -30 -31
leaf_value=-0.13066988979581368 0.056746377963634013 0.081724458044538137 -0.087917460673006959 0.093147711843252184 0.074075379645663686 0.14742336031672351 -0.34734176983909004 -0.090712608566338379 -0.28873628055463069 -0.015654791252953666 0.01094941344737632 -0.051065602767587037 0.028969877278383994 -0.2483473010685133 -0.049173845751786585 -0.17511400450138917 -0.22218744206428528 -0.2419418739767133 -0.12104591987071894 -0.10698843974700219 -0.067344547164408713 -0.059090157796060097 -0.049217864212890469 -0.008091486076888638 -0.19518649043349018 -0.1104245719724688 -0.035701474785296755 -0.13451376415548785 0.11251036081424293 -0.2460263314701262
leaf_weight=89 190 637 261 25 343 628 63 77 61 49 507 268 579 23 89 158 25 143 78 186 154 113 30 240 70 29 165 62 480 21
leaf_count=89 190 637 261 25 343 628 63 77 61 49 507 268 579 23 89 158 25 143 78 186 154 113 30 240 70 29 165 62 480 21
internal_value=-5.74588e-11 0.0629849 -0.112765 -0.0778436 0.0187052 0.113837 -0.217131 -0.00434027 -0.274013 -0.11299 0.00227731 -0.0518537 0.0457499 -0.120708 -0.115774 -0.137542 -0.103813 -0.183793 -0.20333 -0.0739767 -0.0294345 -0.00893832 0.0422967 -0.00957679 -0.238748 -0.0191237 -0.000505046 -0.0842141 0.0949539 -0.147557
internal_weight=5843 3749 2094 1569 2004 1745 525 1082 194 667 1005 902 922 618 595 334 176 331 242 454 448 785 220 294 131 269 672 151 1117 99
internal_count=5843 3749 2094 1569 2004 1745 525 1082 194 667 1005 902 922 618 595 334 176 331 242 454 448 785 220 294 131 269 672 151 1117 99
is_linear=0
shrinkage=0.05


Tree=26
num_leaves=31
num_cat=0
split_feature=0 72 0 6 66 0 34 58 72 6 71 57 21 51 70 76 81 63 80 81 57 57 80 81 33 60 81 69 63 16
split_gain=15004.6 3521.2 2351.36 606.556 394.028 373.017 365.481 297.551 304.217 227.059 159.088 156.4 152.465 133.365 132.891 127.944 122.844 134.748 121.323 117.811 111.517 128.455 109.398 102.337 100.295 100.185 100.07 109.225 127.528 97.0555
threshold=-0.3994868128711993 0.51509716449540244 -1.5043221724793523 1.1054786801662477 -0.14908733617812875 0.050631296598788664 1.0000000180025095e-35 0.56325010572364798 -1.1233223961527747 -2.1494965837134234 1.0000000180025095e-35 1.3504486360930801 0.33807329309519379 1.672770605559915 1.0817921395305283 0.1749492537075196 0.04085406279792423 1.2521272361691367 -0.8468068794845266 1.2839995579807242 0.23087795499826924 1.5178610743876313 -0.746368638438626 -0.12925622761623634 0.29141592119838539 1.0075444653060803 0.5378419932084898 0.20660564077569366 -0.885267666600555 -0.56961474002935197
decision_type=2 2 2 2 2 2 2 2 2 2 2 2 2 2 2 2 2 2 2 2 2 2 2 2 2 2 2 2 2 2
left_child=2 5 6 10 7 16 13 8 19 -8 15 22 -11 -1 25 -3 -2 18 -18 -4 -9 -22 -10 -17 -24 29 27 28 -6 -7
right_child=1 3 4 -5 26 14 9 20 11 12 -12 -13 -14 -15 -16 23 17 -19 -20 -21 21 -23 24 -25 -26 -27 -28 -29 -30 -31
leaf_value=-0.15390805189636314 0.010843968976930273 -0.011598178048411178 -0.094838393585018388 0.13234133701882239 0.065396085008978852 0.057117509098236256 -0.338828845186667 -0.18807627111673356 -0.011695632623868865 -0.27433407323798914 -0.0072540919390893634 -0.12351133931162102 -0.18677228467603182 -0.27521039462089542 -0.016364108774659249 0.090065952619167125 0.010811328135621084 -0.08952837778364911 -0.039338165368113853 -0.15971210714951159 -0.035332594397995208 -0.14439202981345631 -0.088450929175169044 0.047591054568236528 -0.035970489940441712 0.1203707211650908 -0.049879253093794679 0.073389693180268459 -0.095551205985248092 0.019113425404858126
leaf_weight=242 244 36 159 841 20 237 55 90 137 87 53 84 116 25 158 1009 186 85 343 125 36 108 196 165 170 32 151 44 32 577
leaf_count=242 244 36 159 841 20 237 55 90 137 87 53 84 116 25 158 1009 186 85 343 125 36 108 196 165 170 32 151 44 32 577
internal_value=-8.5804e-11 0.0551215 -0.116469 0.0994421 -0.0815957 0.00504058 -0.206275 -0.0943576 -0.0809092 -0.248714 0.0775353 -0.0603554 -0.224299 -0.165266 0.0257287 0.0812492 -0.0191679 -0.0310945 -0.0217053 -0.123392 -0.144415 -0.117127 -0.0498085 0.0840963 -0.0640748 0.03359 -0.0245034 0.0154107 -0.0336484 0.0301785
internal_weight=5843 3966 1877 2104 1352 1862 525 1105 871 258 1263 587 203 267 1004 1210 858 614 529 284 234 144 503 1174 366 846 247 96 52 814
internal_count=5843 3966 1877 2104 1352 1862 525 1105 871 258 1263 587 203 267 1004 1210 858 614 529 284 234 144 503 1174 366 846 247 96 52 814
is_linear=0
shrinkage=0.05


Tree=27
num_leaves=31
num_cat=0
split_feature=0 0 72 0 81 69 6 69 64 56 80 72 66 34 81 37 0 64 70 71 21 63 81 67 80 69 71 38 38 64
split_gain=13543.4 3406.15 1801.07 695.078 408.849 361.201 335.084 241.374 333.481 224.703 215.138 213.686 189.762 165.652 166.261 160.482 149.245 126.25 120.008 109.668 108.99 117.808 108.747 130.416 105.237 98.5913 106.304 91.4229 91.1797 110.404
threshold=-0.037054049401858392 -1.1185066500765053 0.79670052648180756 -1.8959833846155756 0.0894556433938717 1.3447751302205944 0.42170783480263624 0.044009999426422135 1.0000000180025095e-35 0.15197458979453518 -0.50708958462758391 1.2127054930526342 -0.5915465339828011 -0.13995012475401353 0.85377533231869052 0.65088732783924141 -2.7377627062217873 0.85240015350965814 1.0817921395305283 -0.023544521682296579 -1.2497992100717952 -0.47423018529869138 1.3565830244204118 -1.4236476137661913 -1.3314546069193636 0.93828602684741547 0.14091878382141962 1.8160819181456906 1.5555130309633618 0.6336105964434382
decision_type=2 2 2 2 2 2 2 2 2 2 2 2 2 2 2 2 2 2 2 2 2 2 2 2 2 2 2 2 2 2
left_child=1 3 6 9 15 7 18 8 10 -1 -6 -4 13 22 -15 17 -11 -3 24 -8 -18 -22 -5 -24 -2 26 -9 -12 29 -23
right_child=2 4 11 12 5 -7 19 25 -10 16 27 -13 -14 14 -16 -17 20 -19 -20 -21 21 28 23 -25 -26 -27 -28 -29 -30 -31
leaf_value=-0.082347132751475205 0.054943430659462528 -0.00060473053562867503 0.097259017672739756 -0.099992580624241933 -0.0081996638621993564 -0.11318217104780753 0.062918942195762148 -0.0018804314126575233 -0.12780656626542347 -0.33830195246516048 -0.065324652745944109 0.13822240226672611 -0.062364198564539987 -0.093114910057952846 -0.20087344635597298 0.061827968893928477 -0.1335232251180479 -0.091959146244658369 -0.025787481642174009 -0.012699683265322271 -0.29184359156922118 -0.070714137852191924 -0.11546155014777021 -0.21795098447689304 0.012401190644062121 -0.063552579492786712 -0.12009508044924587 -0.16583642542362215 -0.25763322442770004 -0.21876304688973025
leaf_weight=23 193 237 934 202 224 229 801 387 158 37 238 483 79 45 175 89 26 45 151 51 73 20 73 54 589 98 20 25 50 34
leaf_count=23 193 237 934 202 224 229 801 387 158 37 238 483 79 45 175 89 26 45 151 51 73 20 73 54 589 98 20 25 50 34
internal_value=-1.8714e-11 -0.0838191 0.0691337 -0.163398 -0.0433021 -0.0558374 0.0357226 -0.0444184 -0.0646873 -0.23164 -0.0442092 0.111222 -0.134819 -0.145245 -0.178832 0.00329166 -0.245947 -0.0151826 0.0150209 0.0583925 -0.229114 -0.243155 -0.122786 -0.15904 0.0229007 -0.0185303 -0.00768951 -0.074879 -0.20898 -0.16393
internal_weight=5843 2641 3202 891 1750 1379 1785 1150 645 263 487 1417 628 549 220 371 240 282 933 852 203 177 329 127 782 505 407 263 104 54
internal_count=5843 2641 3202 891 1750 1379 1785 1150 645 263 487 1417 628 549 220 371 240 282 933 852 203 177 329 127 782 505 407 263 104 54
is_linear=0
shrinkage=0.05


Tree=28
num_leaves=31
num_cat=0
split_feature=0 0 0 72 67 66 64 58 72 63 71 75 52 63 0 57 80 6 80 39 71 80 4 15 15 57 57 80 33 62
split_gain=12262.3 2887.24 1924.28 481.197 369.518 331.509 311.803 253.455 252.177 186.189 155.239 149.147 134.013 150.79 133.041 131.093 117.333 115.835 111.451 109.584 104.273 103.662 98.2946 110.299 110.499 95.7943 108.857 92.4279 88.7894 88.2681
threshold=-0.3994868128711993 0.50659509580215356 -1.5043221724793523 0.93750220747501045 0.66232400269679104 -0.14908733617812875 0.85240015350965814 0.56325010572364798 -1.1233223961527747 1.2521272361691367 -0.096886266028548371 -1.8305817480118736 1.0000000180025095e-35 0.18342978478429064 -2.2876445967517989 1.3504486360930801 0.94066959298536179 1.495397591985167 -1.1517062124339956 0.54654385961912844 -0.096886266028548371 0.6830959743537327 -1.1635030955073935 -0.26890215377548771 1.8503662030796717 0.23087795499826924 1.6852735126821823 -0.746368638438626 0.29141592119838539 1.4009526167577573
decision_type=2 2 2 2 2 2 2 2 2 2 2 2 2 2 2 2 2 2 2 2 2 2 2 2 2 2 2 2 2 2
left_child=2 4 6 -3 9 7 14 8 20 12 21 -8 18 -14 19 27 22 -5 -2 -1 29 -6 -16 -24 -25 -9 -27 -10 -29 -4
right_child=1 3 5 17 10 -7 11 25 15 -11 -12 -13 13 -15 16 -17 -18 -19 -20 -21 -22 -23 23 24 -26 26 -28 28 -30 -31
leaf_value=-0.28198124142111958 0.042089963219317225 0.066128403789436865 -0.08238290318668906 0.10676239782411523 0.068497026559976956 -0.021374075175102741 -0.31097624773328958 -0.17211329860819713 -0.0096336772859123721 -0.050651707398953964 -0.026861583275368084 -0.20982333385144122 -0.055609673586360278 0.0020517521584729873 -0.11243638214655222 -0.11214291182252401 -0.072571025846732987 0.1501514962650238 -0.00077166781469979696 -0.14479779253403346 -0.21143318576117359 0.019214466719634157 -0.21370789306238294 -0.06376765342865838 -0.18587880805134774 -0.051859823511248196 -0.14103508219122887 -0.080714477560357004 -0.031335902744904158 -0.14467925216026961
leaf_weight=37 232 1007 176 867 302 247 55 90 137 219 74 108 187 288 76 84 45 187 438 24 24 165 104 32 44 56 88 196 170 84
leaf_count=37 232 1007 176 867 302 247 55 90 137 219 74 108 187 288 76 84 45 187 438 24 24 165 104 32 44 56 88 196 170 84
internal_value=-2.10476e-11 0.0498304 -0.105289 0.0908455 0.00545658 -0.0737416 -0.186531 -0.0854473 -0.0730354 -0.00841198 0.0404228 -0.243955 -0.000332946 -0.0206486 -0.160674 -0.0543219 -0.147029 0.11446 0.01407 -0.228007 -0.111714 0.0510846 -0.160117 -0.180249 -0.134464 -0.131647 -0.106356 -0.0446659 -0.0577791 -0.102509
internal_weight=5843 3966 1877 2061 1905 1352 525 1105 871 1364 541 163 1145 475 362 587 301 1054 670 61 284 467 256 180 76 234 144 503 366 260
internal_count=5843 3966 1877 2061 1905 1352 525 1105 871 1364 541 163 1145 475 362 587 301 1054 670 61 284 467 256 180 76 234 144 503 366 260
is_linear=0
shrinkage=0.05


Tree=29
num_leaves=31
num_cat=0
split_feature=76 0 72 0 0 71 10 81 6 72 6 77 69 69 69 28 57 68 80 28 80 81 69 81 63 63 70 62 80 75
split_gain=11093 2893.77 1359.15 571.723 365.882 287.307 195.963 193.527 191.019 181.284 145.43 134.827 156.657 169.553 165.018 131.955 122.841 122.288 131.154 111.764 107.309 102.493 90.6895 86.7359 85.9135 87.8139 84.7497 84.3837 83.9633 78.6413
threshold=0.066475298468370289 -1.1185066500765053 0.79670052648180756 -1.7907609694147992 -0.66254285087314069 -0.096886266028548371 -0.16902823242859905 0.85377533231869052 0.42170783480263624 1.2127054930526342 -2.0873355977712769 1.5742166429195186 -1.0128616693438424 0.20660564077569366 1.6699664129191374 -0.390740801930545 1.3504486360930801 -1.0323168493152624 1.2114299175310579 -0.390740801930545 0.99387950198029096 1.363245050327073 1.0000000180025095e-35 0.0894556433938717 0.92329725112764549 0.40950039950031575 1.0000000180025095e-35 1.2224308619087529 -0.72559441235457511 -1.1954522994142871
decision_type=2 2 2 2 2 2 2 2 2 2 2 2 2 2 2 2 2 2 2 2 2 2 2 2 2 2 2 2 2 2
left_child=1 3 5 6 19 8 22 16 15 -4 -8 12 -5 -14 -15 -2 17 -6 -19 23 -16 26 -1 -3 25 28 -12 -28 -25 -21
right_child=2 4 9 11 7 -7 10 -9 -10 -11 21 -13 13 14 20 -17 -18 18 -20 29 -22 -23 -24 24 -26 -27 27 -29 -30 -31
leaf_value=-0.18298498772084715 0.052998295706954412 0.046835645022136829 0.087591964371821471 -0.089665595827397526 0.070130576366751365 -0.035091261580532447 -0.28394879810512069 -0.047459755139519472 0.057140100645505246 0.12523368925938871 -0.075806164760142569 -0.046948127265347812 -0.19987384707314299 -0.083421014204682897 -0.20504056071834778 0.0077285567036654013 -0.054992332866672301 0.018785262590158613 -0.027741342027793117 -0.046749951682801619 -0.081825001537799841 -0.25400892706974498 -0.087846286597033585 -0.011339651090243172 -0.11398207290164596 0.022411841992288829 -0.1344617067064558 -0.24016297679485343 -0.082230607490691915 -0.11195990907153874
leaf_weight=60 235 21 947 189 58 138 74 495 802 483 20 61 103 121 67 511 116 286 322 61 24 53 43 62 56 40 35 41 128 191
leaf_count=60 235 21 947 189 58 138 74 495 802 483 20 61 103 121 67 511 116 286 322 61 24 53 43 62 56 40 35 41 128 191
internal_value=-1.24366e-10 -0.0736432 0.0644497 -0.147579 -0.0377625 0.0340378 -0.200307 -0.0229947 0.0402004 0.100306 -0.226653 -0.117156 -0.125653 -0.147246 -0.121677 0.0219891 -0.00750852 0.000761932 -0.00585547 -0.0714985 -0.172544 -0.198198 -0.143267 -0.0512428 -0.0584444 -0.0449222 -0.167385 -0.191485 -0.0590978 -0.096175
internal_weight=5843 2727 3116 891 1836 1686 326 1277 1548 1430 223 565 504 315 212 746 782 666 608 559 91 149 103 307 286 230 96 76 190 252
internal_count=5843 2727 3116 891 1836 1686 326 1277 1548 1430 223 565 504 315 212 746 782 666 608 559 91 149 103 307 286 230 96 76 190 252
is_linear=0
shrinkage=0.05


Tree=30
num_leaves=31
num_cat=0
split_feature=0 0 36 0 81 69 72 69 64 56 0 80 66 70 33 77 33 80 37 70 80 64 59 75 58 69 71 65 13 44
split_gain=10032.4 2491.43 1352.04 517.279 332.17 290.832 234.451 206.043 252.531 184.096 180.521 165.927 156.126 135.834 130.541 189.718 184.813 177.549 124.303 118.183 117.003 105.507 96.1904 92.5651 91.0545 89.7382 98.7093 85.2747 101.444 83.5423
threshold=-0.037054049401858392 -1.1185066500765053 0.77615402044755333 -1.8959833846155756 0.0894556433938717 1.3447751302205944 1.1551048053735968 0.20660564077569366 1.0000000180025095e-35 0.15197458979453518 0.30199595513397698 -0.50708958462758391 -0.5915465339828011 2.0781127357470939 0.1746115327089427 0.23633297637206738 1.132407518322373 0.94066959298536179 0.59372904940179227 0.42965502200695821 -0.22573158212324418 0.85240015350965814 0.014201710146052334 -1.6980381465162335 1.0000000180025095e-35 0.93828602684741547 0.081467521358927611 -0.052253486323423491 1.0261628438403856 -0.81194331365161065
decision_type=2 2 2 2 2 2 2 2 2 2 2 2 2 2 2 2 2 2 2 2 2 2 2 2 2 2 2 2 2 2
left_child=1 3 10 9 18 7 -4 8 11 -1 27 -6 13 14 15 20 -16 -18 21 -11 -5 29 -20 -21 -12 26 -9 28 -2 -3
right_child=2 4 6 12 5 -7 -8 25 -10 19 24 -13 -14 -15 16 -17 17 -19 22 23 -22 -23 -24 -25 -26 -27 -28 -29 -30 -31
leaf_value=-0.063939260833127343 0.0064157433405440919 0.086633039698004732 0.076399878334040883 -0.05039850170103212 -0.0064732157313795924 -0.10024397563774903 0.11536169967879994 0.0040012327322415013 -0.1069741249892104 -0.17323099093649674 0.056145467665455598 -0.064451147730593822 -0.049825750376227537 -0.23654879056490385 -0.036458881092923029 -0.18704020009698491 -0.15553924320886534 -0.030257525194335628 0.076075683544062217 -0.27037938067570644 -0.1415925672957126 -0.085005819754198547 -0.046368777267634873 -0.17790426278707427 0.023381031636643304 -0.055823008003121968 -0.11016441555693746 -0.054593111647694717 0.075663543831364352 -0.010259507282978239
leaf_weight=23 600 25 1005 60 228 229 627 355 180 108 483 269 79 26 91 130 120 37 81 94 85 43 20 38 378 98 20 51 58 202
leaf_count=23 600 25 1005 60 228 229 627 355 180 108 483 269 79 26 91 130 120 37 81 94 85 43 20 38 378 98 20 51 58 202
internal_value=2.3093e-11 -0.0721407 0.0595014 -0.1402 -0.0374886 -0.0487875 0.0913687 -0.038541 -0.0562313 -0.199071 0.0263758 -0.0378536 -0.115546 -0.125003 -0.119458 -0.14318 -0.0931532 -0.126014 0.00450919 -0.212021 -0.103857 -0.013192 0.0518293 -0.243758 0.0417611 -0.0132209 -0.0020876 0.00769208 0.0125197 0.000411478
internal_weight=5843 2641 3202 891 1750 1379 1632 1150 677 263 1570 497 628 549 523 275 248 157 371 240 145 270 101 132 861 473 375 709 658 227
internal_count=5843 2641 3202 891 1750 1379 1632 1150 677 263 1570 497 628 549 523 275 248 157 371 240 145 270 101 132 861 473 375 709 658 227
is_linear=0
shrinkage=0.05


Tree=31
num_leaves=31
num_cat=0
split_feature=0 6 0 81 80 68 72 58 65 49 71 33 46 69 70 75 45 0 71 69 80 15 45 80 63 81 28 72 68 70
split_gain=9062.93 2155.37 1425.24 365.857 285.731 268.213 254.105 241.753 222.362 170.627 145.041 134.306 178.946 127.411 121.229 117.653 115.846 112.199 100.809 100.018 96.3325 94.7182 93.8584 93.7598 92.315 87.0349 99.2067 77.6541 75.3745 74.8802
threshold=-0.3994868128711993 0.6590497811271957 -1.5043221724793523 0.49253530400370876 0.66169672883714792 1.3478642985762601 1.0783038884682135 0.99102236550420553 0.1535780527521271 0.08423947086364493 1.0000000180025095e-35 0.1746115327089427 -0.45034278200910655 0.77569038549814395 1.0817921395305283 -1.6737856743101265 0.15702309023905414 -2.4805523579532225 0.11180433379305903 0.20660564077569366 -0.8468068794845266 -0.59688416138402423 1.0580847764211296 0.94066959298536179 1.745372213731373 1.363245050327073 -0.390740801930545 1.4815087022214757 -0.70626463727532707 1.8607336965725703
decision_type=2 2 2 2 2 2 2 2 2 2 2 2 2 2 2 2 2 2 2 2 2 2 2 2 2 2 2 2 2 2
left_child=2 3 7 4 10 8 29 17 9 11 14 12 21 19 -2 -9 -14 -1 20 -13 22 -4 -5 24 -19 26 -7 -8 -6 -3
right_child=1 6 5 18 28 25 27 15 -10 -11 -12 13 16 -15 -16 -17 -18 23 -20 -21 -22 -23 -24 -25 -26 -27 -28 -29 -30 -31
leaf_value=-0.2196916501224041 0.059001852815010261 0.069560994518348407 -0.021795021355824753 0.021076156306907397 0.024369449215911089 -0.060893786505095721 0.10128825892645277 -0.26938463024428633 -0.15407343870401383 0.0016338401591947565 -0.034276984743773935 -0.038437458443287643 -0.14812762446555436 -0.07004990177569774 -0.045660583918978426 -0.17587719123562179 -0.065950520296354551 -0.13064903207703091 -0.090758674824610364 0.024843652841153408 -0.032043518384922434 -0.088111303913472008 -0.064196182983486269 -0.067907785505056384 -0.21060494567666735 -0.16055452853075364 -0.12327165755070008 0.1596609078347683 -0.0062836539215630847 -0.028188849161379037
leaf_weight=40 602 960 144 214 310 129 703 61 50 158 50 161 102 164 29 75 74 257 48 102 362 86 38 50 42 56 126 62 568 20
leaf_count=40 602 960 144 214 310 129 703 61 50 158 50 161 102 164 29 75 74 257 48 102 362 86 38 50 42 56 126 62 568 20
internal_value=-1.37176e-11 0.0428393 -0.0905171 0.0101671 0.023391 -0.0633669 0.0844237 -0.160435 -0.0511945 -0.0460039 0.0476962 -0.0550396 -0.0756291 -0.0354627 0.0541917 -0.217818 -0.113576 -0.140373 -0.0209748 -0.013895 -0.0155194 -0.0465915 0.00821763 -0.131283 -0.14188 -0.104111 -0.0917158 0.106019 0.0045392 0.0675661
internal_weight=5843 3966 1877 2221 1559 1352 1745 525 1041 991 681 833 406 427 631 136 176 389 662 263 614 230 252 349 299 311 255 765 878 980
internal_count=5843 3966 1877 2221 1559 1352 1745 525 1041 991 681 833 406 427 631 136 176 389 662 263 614 230 252 349 299 311 255 765 878 980
is_linear=0
shrinkage=0.05


Tree=32
num_leaves=31
num_cat=0
split_feature=0 0 36 0 81 0 69 69 64 0 4 15 80 62 72 70 69 69 63 66 38 63 65 80 81 76 77 40 45 71
split_gain=8199.76 2037.49 1112.39 426.209 288.631 230.369 218.337 206.848 289.595 158.801 146.878 165.043 141.011 114.496 114.19 110.191 99.2386 143.285 109.158 108.72 93.7269 86.2128 85.0492 94.1076 85.0163 83.9882 83.1189 76.368 95.3096 72.8214
threshold=-0.037054049401858392 -1.1185066500765053 0.92492026911248548 -1.7907609694147992 -0.43836784071515317 0.50659509580215356 1.3447751302205944 0.1253078201010579 1.0000000180025095e-35 -2.7377627062217873 -1.1635030955073935 -0.26890215377548771 -0.80734214929776371 -0.53032818569952089 1.1551048053735968 1.0817921395305283 -1.0128616693438424 1.0000000180025095e-35 1.5809572212106275 -0.65215738299713977 1.8160819181456906 0.84108975486727278 1.0000000180025095e-35 0.88495454178005206 1.3382007904765221 -0.37480705291888766 1.6325706901391948 1.0000000180025095e-35 -0.084725167029307533 0.063965514185390246
decision_type=2 2 2 2 2 2 2 2 2 2 2 2 2 2 2 2 2 2 2 2 2 2 2 2 2 2 2 2 2 2
left_child=1 3 5 9 27 15 7 8 12 -1 24 -12 -6 -5 -4 22 -15 19 -19 -18 -14 29 23 -2 -11 -8 -13 -3 -29 -9
right_child=2 4 14 13 6 -7 25 21 -10 10 11 26 20 16 -16 -17 17 18 -20 -21 -22 -23 -24 -25 -26 -27 -28 28 -30 -31
leaf_value=-0.26982295319840716 0.040981427338635378 0.054007798440467859 0.075867677203509357 -0.015472588144444131 0.0021207364186068664 0.050262809356171848 -0.10018902711002504 0.0029382354076420724 -0.10086243756808078 0.0016367322951555251 -0.21379408395732755 -0.1540590496377108 -0.042458569196171067 -0.077782521339637853 0.10599210697826141 -0.020594384911464914 -0.19710048586130144 -0.068967287313938141 -0.13848447284833029 -0.076432900254925107 -0.13943205795906208 -0.062635998862365691 -0.038155397251248363 0.0083898851392678782 -0.14240498494002082 -0.040486812842793242 -0.053050063521816182 -0.081216570362448698 0.033837524561418426 -0.092290201694482862
leaf_weight=37 479 104 653 37 207 817 187 456 199 20 128 94 323 192 607 179 84 125 103 24 27 65 55 412 21 86 26 30 45 21
leaf_count=37 479 104 653 37 207 817 187 456 199 20 128 94 323 192 607 179 84 125 103 24 27 65 55 412 21 86 26 30 45 21
internal_value=-9.5299e-11 -0.0652197 0.053793 -0.126768 -0.033883 0.0300548 -0.0407373 -0.0321888 -0.0490892 -0.172294 -0.159807 -0.1743 -0.0305921 -0.1005 0.09038 0.0153794 -0.106458 -0.122844 -0.100372 -0.170285 -0.0499394 -0.0086155 0.0221862 0.025911 -0.0721407 -0.0813817 -0.132174 0.0262738 -0.0121841 -0.00125421
internal_weight=5843 2641 3202 891 1750 1942 1571 1298 756 326 289 248 557 565 1260 1125 528 336 228 108 350 542 946 891 41 273 120 179 75 477
internal_count=5843 2641 3202 891 1750 1942 1571 1298 756 326 289 248 557 565 1260 1125 528 336 228 108 350 542 946 891 41 273 120 179 75 477
is_linear=0
shrinkage=0.05


Tree=33
num_leaves=31
num_cat=0
split_feature=76 0 72 0 0 71 40 56 77 6 72 69 15 81 28 71 21 62 63 80 38 39 46 39 4 24 69 65 67 28
split_gain=7422.92 1917.65 930.127 386.365 262.907 210.303 159.174 154.407 138.887 131.711 127.685 111.903 152.366 115.629 108.193 105.39 107.873 98.0813 101.173 91.9256 108.272 91.5879 95.0115 88.7013 87.5295 82.8125 82.4114 82.0528 80.7653 76.2566
threshold=0.066475298468370289 -1.1185066500765053 0.79670052648180756 -1.8959833846155756 -0.66254285087314069 -0.096886266028548371 0.28752333360476751 0.15197458979453518 1.7484269006775282 0.36519784758250301 1.3471070976370545 -1.0128616693438424 0.21045616503698877 0.85377533231869052 -0.390740801930545 0.030906167302041876 -1.2497992100717952 0.21621733457808398 1.2521272361691367 -0.17757594596732948 0.51323748223398058 0.54654385961912844 0.68169901397499999 0.31482562314343965 0.35822771555561989 -1.3268567849432762 1.1008816681966873 -0.03020010713675737 0.18052478419615461 -0.51569022112953344
decision_type=2 2 2 2 2 2 2 2 2 2 2 2 2 2 2 2 2 2 2 2 2 2 2 2 2 2 2 2 2 2
left_child=1 3 5 7 24 9 17 -1 11 14 27 19 29 -14 -2 16 -9 18 -6 -5 -21 -18 -23 -8 28 -22 -25 -4 -3 -13
right_child=2 4 10 8 6 -7 23 15 -10 -11 -12 12 13 -15 -16 -17 21 -19 -20 20 25 22 -24 26 -26 -27 -28 -29 -30 -31
